
J48 pruned tree
------------------

first_person_pronouns <= 0
|   ellipses <= 0
|   |   adverbs <= 0
|   |   |   past_tense_verbs <= 0
|   |   |   |   dashes <= 0
|   |   |   |   |   proper_nouns <= 0
|   |   |   |   |   |   common_nouns <= 5
|   |   |   |   |   |   |   colons_and_semicolons <= 0
|   |   |   |   |   |   |   |   all_upper_case_words <= 0: 4 (1086.0/342.0)
|   |   |   |   |   |   |   |   all_upper_case_words > 0
|   |   |   |   |   |   |   |   |   third_person_pronouns <= 0
|   |   |   |   |   |   |   |   |   |   n_sentences <= 1
|   |   |   |   |   |   |   |   |   |   |   wh_words <= 0: 4 (116.0/35.0)
|   |   |   |   |   |   |   |   |   |   |   wh_words > 0
|   |   |   |   |   |   |   |   |   |   |   |   avg_sentence_len <= 5: 0 (4.0)
|   |   |   |   |   |   |   |   |   |   |   |   avg_sentence_len > 5: 4 (11.0/2.0)
|   |   |   |   |   |   |   |   |   |   n_sentences > 1
|   |   |   |   |   |   |   |   |   |   |   commas <= 0
|   |   |   |   |   |   |   |   |   |   |   |   n_sentences <= 2: 4 (52.0/21.0)
|   |   |   |   |   |   |   |   |   |   |   |   n_sentences > 2: 0 (6.0/1.0)
|   |   |   |   |   |   |   |   |   |   |   commas > 0: 0 (5.0/1.0)
|   |   |   |   |   |   |   |   |   third_person_pronouns > 0
|   |   |   |   |   |   |   |   |   |   all_upper_case_words <= 1
|   |   |   |   |   |   |   |   |   |   |   n_sentences <= 1
|   |   |   |   |   |   |   |   |   |   |   |   common_nouns <= 4: 0 (10.0/2.0)
|   |   |   |   |   |   |   |   |   |   |   |   common_nouns > 4: 4 (3.0)
|   |   |   |   |   |   |   |   |   |   |   n_sentences > 1: 0 (6.0)
|   |   |   |   |   |   |   |   |   |   all_upper_case_words > 1: 4 (6.0/1.0)
|   |   |   |   |   |   |   colons_and_semicolons > 0
|   |   |   |   |   |   |   |   wh_words <= 0
|   |   |   |   |   |   |   |   |   all_upper_case_words <= 1
|   |   |   |   |   |   |   |   |   |   all_upper_case_words <= 0
|   |   |   |   |   |   |   |   |   |   |   coordinating_conjunctions <= 0
|   |   |   |   |   |   |   |   |   |   |   |   colons_and_semicolons <= 1
|   |   |   |   |   |   |   |   |   |   |   |   |   commas <= 0: 4 (15.0/3.0)
|   |   |   |   |   |   |   |   |   |   |   |   |   commas > 0: 0 (3.0/1.0)
|   |   |   |   |   |   |   |   |   |   |   |   colons_and_semicolons > 1
|   |   |   |   |   |   |   |   |   |   |   |   |   avg_sentence_len <= 7.5: 0 (5.0)
|   |   |   |   |   |   |   |   |   |   |   |   |   avg_sentence_len > 7.5: 4 (5.0/2.0)
|   |   |   |   |   |   |   |   |   |   |   coordinating_conjunctions > 0: 0 (5.0)
|   |   |   |   |   |   |   |   |   |   all_upper_case_words > 0: 4 (8.0/1.0)
|   |   |   |   |   |   |   |   |   all_upper_case_words > 1: 0 (2.0)
|   |   |   |   |   |   |   |   wh_words > 0: 4 (4.0)
|   |   |   |   |   |   common_nouns > 5
|   |   |   |   |   |   |   commas <= 0
|   |   |   |   |   |   |   |   avg_token_len <= 3.857143
|   |   |   |   |   |   |   |   |   n_sentences <= 2
|   |   |   |   |   |   |   |   |   |   second_person_pronouns <= 0
|   |   |   |   |   |   |   |   |   |   |   avg_sentence_len <= 9: 4 (4.0)
|   |   |   |   |   |   |   |   |   |   |   avg_sentence_len > 9
|   |   |   |   |   |   |   |   |   |   |   |   avg_sentence_len <= 12.5: 0 (4.0)
|   |   |   |   |   |   |   |   |   |   |   |   avg_sentence_len > 12.5: 4 (3.0/1.0)
|   |   |   |   |   |   |   |   |   |   second_person_pronouns > 0: 0 (4.0/1.0)
|   |   |   |   |   |   |   |   |   n_sentences > 2: 4 (4.0)
|   |   |   |   |   |   |   |   avg_token_len > 3.857143: 4 (86.0/8.0)
|   |   |   |   |   |   |   commas > 0
|   |   |   |   |   |   |   |   coordinating_conjunctions <= 0
|   |   |   |   |   |   |   |   |   avg_token_len <= 4.590909: 0 (4.0/1.0)
|   |   |   |   |   |   |   |   |   avg_token_len > 4.590909: 4 (8.0)
|   |   |   |   |   |   |   |   coordinating_conjunctions > 0
|   |   |   |   |   |   |   |   |   avg_sentence_len <= 10: 0 (5.0)
|   |   |   |   |   |   |   |   |   avg_sentence_len > 10: 4 (5.0/1.0)
|   |   |   |   |   proper_nouns > 0: 4 (399.0/85.0)
|   |   |   |   dashes > 0
|   |   |   |   |   second_person_pronouns <= 0
|   |   |   |   |   |   dashes <= 1: 4 (94.0/13.0)
|   |   |   |   |   |   dashes > 1
|   |   |   |   |   |   |   proper_nouns <= 0
|   |   |   |   |   |   |   |   avg_sentence_len <= 4.25: 4 (6.0)
|   |   |   |   |   |   |   |   avg_sentence_len > 4.25
|   |   |   |   |   |   |   |   |   common_nouns <= 4: 0 (6.0)
|   |   |   |   |   |   |   |   |   common_nouns > 4: 4 (5.0/2.0)
|   |   |   |   |   |   |   proper_nouns > 0: 4 (3.0)
|   |   |   |   |   second_person_pronouns > 0: 4 (14.0)
|   |   |   past_tense_verbs > 0
|   |   |   |   third_person_pronouns <= 1
|   |   |   |   |   commas <= 0
|   |   |   |   |   |   second_person_pronouns <= 1
|   |   |   |   |   |   |   wh_words <= 0
|   |   |   |   |   |   |   |   common_nouns <= 4
|   |   |   |   |   |   |   |   |   all_upper_case_words <= 0
|   |   |   |   |   |   |   |   |   |   n_sentences <= 2
|   |   |   |   |   |   |   |   |   |   |   common_nouns <= 0: 0 (5.0/1.0)
|   |   |   |   |   |   |   |   |   |   |   common_nouns > 0
|   |   |   |   |   |   |   |   |   |   |   |   colons_and_semicolons <= 0
|   |   |   |   |   |   |   |   |   |   |   |   |   common_nouns <= 1
|   |   |   |   |   |   |   |   |   |   |   |   |   |   proper_nouns <= 0
|   |   |   |   |   |   |   |   |   |   |   |   |   |   |   avg_sentence_len <= 8.5: 4 (20.0/3.0)
|   |   |   |   |   |   |   |   |   |   |   |   |   |   |   avg_sentence_len > 8.5: 0 (3.0/1.0)
|   |   |   |   |   |   |   |   |   |   |   |   |   |   proper_nouns > 0
|   |   |   |   |   |   |   |   |   |   |   |   |   |   |   avg_sentence_len <= 6.5: 0 (3.0)
|   |   |   |   |   |   |   |   |   |   |   |   |   |   |   avg_sentence_len > 6.5: 4 (2.0)
|   |   |   |   |   |   |   |   |   |   |   |   |   common_nouns > 1
|   |   |   |   |   |   |   |   |   |   |   |   |   |   third_person_pronouns <= 0
|   |   |   |   |   |   |   |   |   |   |   |   |   |   |   second_person_pronouns <= 0
|   |   |   |   |   |   |   |   |   |   |   |   |   |   |   |   coordinating_conjunctions <= 0
|   |   |   |   |   |   |   |   |   |   |   |   |   |   |   |   |   common_nouns <= 3
|   |   |   |   |   |   |   |   |   |   |   |   |   |   |   |   |   |   avg_sentence_len <= 6.5
|   |   |   |   |   |   |   |   |   |   |   |   |   |   |   |   |   |   |   avg_token_len <= 5.75: 4 (7.0/1.0)
|   |   |   |   |   |   |   |   |   |   |   |   |   |   |   |   |   |   |   avg_token_len > 5.75: 0 (4.0/1.0)
|   |   |   |   |   |   |   |   |   |   |   |   |   |   |   |   |   |   avg_sentence_len > 6.5: 0 (10.0/2.0)
|   |   |   |   |   |   |   |   |   |   |   |   |   |   |   |   |   common_nouns > 3: 0 (4.0/2.0)
|   |   |   |   |   |   |   |   |   |   |   |   |   |   |   |   coordinating_conjunctions > 0
|   |   |   |   |   |   |   |   |   |   |   |   |   |   |   |   |   common_nouns <= 3: 4 (3.0)
|   |   |   |   |   |   |   |   |   |   |   |   |   |   |   |   |   common_nouns > 3: 0 (3.0/1.0)
|   |   |   |   |   |   |   |   |   |   |   |   |   |   |   second_person_pronouns > 0
|   |   |   |   |   |   |   |   |   |   |   |   |   |   |   |   avg_token_len <= 4.631579: 0 (2.0)
|   |   |   |   |   |   |   |   |   |   |   |   |   |   |   |   avg_token_len > 4.631579: 4 (6.0)
|   |   |   |   |   |   |   |   |   |   |   |   |   |   third_person_pronouns > 0
|   |   |   |   |   |   |   |   |   |   |   |   |   |   |   avg_sentence_len <= 5.5: 4 (2.0)
|   |   |   |   |   |   |   |   |   |   |   |   |   |   |   avg_sentence_len > 5.5: 0 (8.0/1.0)
|   |   |   |   |   |   |   |   |   |   |   |   colons_and_semicolons > 0: 4 (4.0/1.0)
|   |   |   |   |   |   |   |   |   |   n_sentences > 2: 4 (6.0/1.0)
|   |   |   |   |   |   |   |   |   all_upper_case_words > 0
|   |   |   |   |   |   |   |   |   |   coordinating_conjunctions <= 0
|   |   |   |   |   |   |   |   |   |   |   avg_sentence_len <= 5.5
|   |   |   |   |   |   |   |   |   |   |   |   avg_token_len <= 6: 0 (13.0)
|   |   |   |   |   |   |   |   |   |   |   |   avg_token_len > 6: 4 (3.0)
|   |   |   |   |   |   |   |   |   |   |   avg_sentence_len > 5.5: 4 (6.0/1.0)
|   |   |   |   |   |   |   |   |   |   coordinating_conjunctions > 0: 0 (5.0)
|   |   |   |   |   |   |   |   common_nouns > 4
|   |   |   |   |   |   |   |   |   colons_and_semicolons <= 0: 4 (19.0/1.0)
|   |   |   |   |   |   |   |   |   colons_and_semicolons > 0
|   |   |   |   |   |   |   |   |   |   common_nouns <= 7: 0 (3.0)
|   |   |   |   |   |   |   |   |   |   common_nouns > 7: 4 (3.0)
|   |   |   |   |   |   |   wh_words > 0
|   |   |   |   |   |   |   |   wh_words <= 1
|   |   |   |   |   |   |   |   |   second_person_pronouns <= 0: 0 (13.0)
|   |   |   |   |   |   |   |   |   second_person_pronouns > 0
|   |   |   |   |   |   |   |   |   |   avg_sentence_len <= 8: 0 (3.0)
|   |   |   |   |   |   |   |   |   |   avg_sentence_len > 8: 4 (3.0)
|   |   |   |   |   |   |   |   wh_words > 1: 4 (3.0/1.0)
|   |   |   |   |   |   second_person_pronouns > 1: 4 (9.0/1.0)
|   |   |   |   |   commas > 0: 4 (39.0/9.0)
|   |   |   |   third_person_pronouns > 1
|   |   |   |   |   avg_sentence_len <= 17.5: 0 (11.0)
|   |   |   |   |   avg_sentence_len > 17.5: 4 (2.0)
|   |   adverbs > 0
|   |   |   second_person_pronouns <= 0
|   |   |   |   common_nouns <= 2
|   |   |   |   |   adverbs <= 1
|   |   |   |   |   |   third_person_pronouns <= 0
|   |   |   |   |   |   |   common_nouns <= 0
|   |   |   |   |   |   |   |   n_sentences <= 1: 0 (34.0/11.0)
|   |   |   |   |   |   |   |   n_sentences > 1: 4 (4.0/1.0)
|   |   |   |   |   |   |   common_nouns > 0
|   |   |   |   |   |   |   |   proper_nouns <= 0
|   |   |   |   |   |   |   |   |   avg_token_len <= 4.888889
|   |   |   |   |   |   |   |   |   |   n_sentences <= 1
|   |   |   |   |   |   |   |   |   |   |   past_tense_verbs <= 0
|   |   |   |   |   |   |   |   |   |   |   |   common_nouns <= 1
|   |   |   |   |   |   |   |   |   |   |   |   |   avg_sentence_len <= 6.5: 0 (29.0/8.0)
|   |   |   |   |   |   |   |   |   |   |   |   |   avg_sentence_len > 6.5: 4 (8.0/2.0)
|   |   |   |   |   |   |   |   |   |   |   |   common_nouns > 1
|   |   |   |   |   |   |   |   |   |   |   |   |   all_upper_case_words <= 0
|   |   |   |   |   |   |   |   |   |   |   |   |   |   commas <= 0
|   |   |   |   |   |   |   |   |   |   |   |   |   |   |   avg_token_len <= 3.470588: 0 (7.0)
|   |   |   |   |   |   |   |   |   |   |   |   |   |   |   avg_token_len > 3.470588: 4 (31.0/13.0)
|   |   |   |   |   |   |   |   |   |   |   |   |   |   commas > 0: 4 (3.0/1.0)
|   |   |   |   |   |   |   |   |   |   |   |   |   all_upper_case_words > 0
|   |   |   |   |   |   |   |   |   |   |   |   |   |   avg_sentence_len <= 6.5: 4 (7.0/2.0)
|   |   |   |   |   |   |   |   |   |   |   |   |   |   avg_sentence_len > 6.5: 0 (4.0)
|   |   |   |   |   |   |   |   |   |   |   past_tense_verbs > 0
|   |   |   |   |   |   |   |   |   |   |   |   avg_sentence_len <= 6.5: 4 (7.0/1.0)
|   |   |   |   |   |   |   |   |   |   |   |   avg_sentence_len > 6.5: 0 (10.0/1.0)
|   |   |   |   |   |   |   |   |   |   n_sentences > 1
|   |   |   |   |   |   |   |   |   |   |   avg_token_len <= 4.392857: 0 (19.0/5.0)
|   |   |   |   |   |   |   |   |   |   |   avg_token_len > 4.392857
|   |   |   |   |   |   |   |   |   |   |   |   avg_token_len <= 4.75: 4 (6.0/1.0)
|   |   |   |   |   |   |   |   |   |   |   |   avg_token_len > 4.75: 0 (3.0)
|   |   |   |   |   |   |   |   |   avg_token_len > 4.888889: 4 (109.0/39.0)
|   |   |   |   |   |   |   |   proper_nouns > 0
|   |   |   |   |   |   |   |   |   all_upper_case_words <= 1: 4 (62.0/19.0)
|   |   |   |   |   |   |   |   |   all_upper_case_words > 1: 0 (4.0)
|   |   |   |   |   |   third_person_pronouns > 0
|   |   |   |   |   |   |   wh_words <= 0
|   |   |   |   |   |   |   |   coordinating_conjunctions <= 0
|   |   |   |   |   |   |   |   |   past_tense_verbs <= 0
|   |   |   |   |   |   |   |   |   |   commas <= 0
|   |   |   |   |   |   |   |   |   |   |   proper_nouns <= 1
|   |   |   |   |   |   |   |   |   |   |   |   proper_nouns <= 0
|   |   |   |   |   |   |   |   |   |   |   |   |   avg_token_len <= 3.592593: 0 (6.0)
|   |   |   |   |   |   |   |   |   |   |   |   |   avg_token_len > 3.592593
|   |   |   |   |   |   |   |   |   |   |   |   |   |   all_upper_case_words <= 0
|   |   |   |   |   |   |   |   |   |   |   |   |   |   |   n_sentences <= 1
|   |   |   |   |   |   |   |   |   |   |   |   |   |   |   |   avg_token_len <= 5.368421
|   |   |   |   |   |   |   |   |   |   |   |   |   |   |   |   |   avg_sentence_len <= 9.5: 4 (16.0/3.0)
|   |   |   |   |   |   |   |   |   |   |   |   |   |   |   |   |   avg_sentence_len > 9.5: 0 (2.0)
|   |   |   |   |   |   |   |   |   |   |   |   |   |   |   |   avg_token_len > 5.368421: 0 (3.0)
|   |   |   |   |   |   |   |   |   |   |   |   |   |   |   n_sentences > 1
|   |   |   |   |   |   |   |   |   |   |   |   |   |   |   |   common_nouns <= 1: 0 (3.0/1.0)
|   |   |   |   |   |   |   |   |   |   |   |   |   |   |   |   common_nouns > 1
|   |   |   |   |   |   |   |   |   |   |   |   |   |   |   |   |   avg_token_len <= 4.047619: 0 (2.0)
|   |   |   |   |   |   |   |   |   |   |   |   |   |   |   |   |   avg_token_len > 4.047619: 4 (2.0)
|   |   |   |   |   |   |   |   |   |   |   |   |   |   all_upper_case_words > 0
|   |   |   |   |   |   |   |   |   |   |   |   |   |   |   avg_token_len <= 5.045455
|   |   |   |   |   |   |   |   |   |   |   |   |   |   |   |   avg_token_len <= 4.4: 4 (3.0/1.0)
|   |   |   |   |   |   |   |   |   |   |   |   |   |   |   |   avg_token_len > 4.4: 0 (3.0)
|   |   |   |   |   |   |   |   |   |   |   |   |   |   |   avg_token_len > 5.045455: 4 (2.0)
|   |   |   |   |   |   |   |   |   |   |   |   proper_nouns > 0: 4 (3.0/1.0)
|   |   |   |   |   |   |   |   |   |   |   proper_nouns > 1: 0 (4.0)
|   |   |   |   |   |   |   |   |   |   commas > 0
|   |   |   |   |   |   |   |   |   |   |   avg_sentence_len <= 11.5: 0 (6.0)
|   |   |   |   |   |   |   |   |   |   |   avg_sentence_len > 11.5: 4 (2.0)
|   |   |   |   |   |   |   |   |   past_tense_verbs > 0: 4 (5.0/1.0)
|   |   |   |   |   |   |   |   coordinating_conjunctions > 0: 0 (22.0/7.0)
|   |   |   |   |   |   |   wh_words > 0: 0 (6.0/1.0)
|   |   |   |   |   adverbs > 1
|   |   |   |   |   |   future_tense_verbs <= 0
|   |   |   |   |   |   |   avg_token_len <= 3.413793: 0 (11.0)
|   |   |   |   |   |   |   avg_token_len > 3.413793
|   |   |   |   |   |   |   |   colons_and_semicolons <= 0
|   |   |   |   |   |   |   |   |   coordinating_conjunctions <= 0
|   |   |   |   |   |   |   |   |   |   all_upper_case_words <= 0
|   |   |   |   |   |   |   |   |   |   |   past_tense_verbs <= 0: 0 (91.0/29.0)
|   |   |   |   |   |   |   |   |   |   |   past_tense_verbs > 0
|   |   |   |   |   |   |   |   |   |   |   |   common_nouns <= 0: 4 (2.0)
|   |   |   |   |   |   |   |   |   |   |   |   common_nouns > 0
|   |   |   |   |   |   |   |   |   |   |   |   |   n_sentences <= 2: 0 (14.0/4.0)
|   |   |   |   |   |   |   |   |   |   |   |   |   n_sentences > 2: 4 (2.0)
|   |   |   |   |   |   |   |   |   |   all_upper_case_words > 0
|   |   |   |   |   |   |   |   |   |   |   adverbs <= 2
|   |   |   |   |   |   |   |   |   |   |   |   proper_nouns <= 0: 4 (7.0/1.0)
|   |   |   |   |   |   |   |   |   |   |   |   proper_nouns > 0: 0 (5.0/2.0)
|   |   |   |   |   |   |   |   |   |   |   adverbs > 2: 0 (3.0)
|   |   |   |   |   |   |   |   |   coordinating_conjunctions > 0
|   |   |   |   |   |   |   |   |   |   past_tense_verbs <= 0
|   |   |   |   |   |   |   |   |   |   |   common_nouns <= 1: 0 (5.0)
|   |   |   |   |   |   |   |   |   |   |   common_nouns > 1
|   |   |   |   |   |   |   |   |   |   |   |   avg_token_len <= 4.470588: 0 (6.0/1.0)
|   |   |   |   |   |   |   |   |   |   |   |   avg_token_len > 4.470588: 4 (7.0)
|   |   |   |   |   |   |   |   |   |   past_tense_verbs > 0
|   |   |   |   |   |   |   |   |   |   |   commas <= 0: 4 (4.0)
|   |   |   |   |   |   |   |   |   |   |   commas > 0: 0 (2.0)
|   |   |   |   |   |   |   |   colons_and_semicolons > 0
|   |   |   |   |   |   |   |   |   avg_sentence_len <= 8.5: 0 (3.0)
|   |   |   |   |   |   |   |   |   avg_sentence_len > 8.5: 4 (6.0/1.0)
|   |   |   |   |   |   future_tense_verbs > 0
|   |   |   |   |   |   |   all_upper_case_words <= 0
|   |   |   |   |   |   |   |   avg_sentence_len <= 11: 0 (6.0/1.0)
|   |   |   |   |   |   |   |   avg_sentence_len > 11: 4 (2.0)
|   |   |   |   |   |   |   all_upper_case_words > 0: 0 (6.0)
|   |   |   |   common_nouns > 2
|   |   |   |   |   proper_nouns <= 2
|   |   |   |   |   |   proper_nouns <= 1
|   |   |   |   |   |   |   parentheses <= 0
|   |   |   |   |   |   |   |   commas <= 0
|   |   |   |   |   |   |   |   |   wh_words <= 0
|   |   |   |   |   |   |   |   |   |   adverbs <= 2
|   |   |   |   |   |   |   |   |   |   |   future_tense_verbs <= 0
|   |   |   |   |   |   |   |   |   |   |   |   proper_nouns <= 0
|   |   |   |   |   |   |   |   |   |   |   |   |   all_upper_case_words <= 1
|   |   |   |   |   |   |   |   |   |   |   |   |   |   avg_sentence_len <= 13.5
|   |   |   |   |   |   |   |   |   |   |   |   |   |   |   avg_token_len <= 4.32
|   |   |   |   |   |   |   |   |   |   |   |   |   |   |   |   colons_and_semicolons <= 0
|   |   |   |   |   |   |   |   |   |   |   |   |   |   |   |   |   coordinating_conjunctions <= 1
|   |   |   |   |   |   |   |   |   |   |   |   |   |   |   |   |   |   past_tense_verbs <= 1
|   |   |   |   |   |   |   |   |   |   |   |   |   |   |   |   |   |   |   all_upper_case_words <= 0
|   |   |   |   |   |   |   |   |   |   |   |   |   |   |   |   |   |   |   |   common_nouns <= 6
|   |   |   |   |   |   |   |   |   |   |   |   |   |   |   |   |   |   |   |   |   adverbs <= 1
|   |   |   |   |   |   |   |   |   |   |   |   |   |   |   |   |   |   |   |   |   |   common_nouns <= 4: 0 (38.0/9.0)
|   |   |   |   |   |   |   |   |   |   |   |   |   |   |   |   |   |   |   |   |   |   common_nouns > 4: 4 (8.0/3.0)
|   |   |   |   |   |   |   |   |   |   |   |   |   |   |   |   |   |   |   |   |   adverbs > 1
|   |   |   |   |   |   |   |   |   |   |   |   |   |   |   |   |   |   |   |   |   |   common_nouns <= 3: 4 (3.0)
|   |   |   |   |   |   |   |   |   |   |   |   |   |   |   |   |   |   |   |   |   |   common_nouns > 3: 0 (7.0/2.0)
|   |   |   |   |   |   |   |   |   |   |   |   |   |   |   |   |   |   |   |   common_nouns > 6: 0 (5.0)
|   |   |   |   |   |   |   |   |   |   |   |   |   |   |   |   |   |   |   all_upper_case_words > 0
|   |   |   |   |   |   |   |   |   |   |   |   |   |   |   |   |   |   |   |   third_person_pronouns <= 0
|   |   |   |   |   |   |   |   |   |   |   |   |   |   |   |   |   |   |   |   |   common_nouns <= 4
|   |   |   |   |   |   |   |   |   |   |   |   |   |   |   |   |   |   |   |   |   |   avg_sentence_len <= 8.25: 4 (11.0/2.0)
|   |   |   |   |   |   |   |   |   |   |   |   |   |   |   |   |   |   |   |   |   |   avg_sentence_len > 8.25: 0 (5.0/1.0)
|   |   |   |   |   |   |   |   |   |   |   |   |   |   |   |   |   |   |   |   |   common_nouns > 4: 0 (6.0)
|   |   |   |   |   |   |   |   |   |   |   |   |   |   |   |   |   |   |   |   third_person_pronouns > 0: 4 (3.0/1.0)
|   |   |   |   |   |   |   |   |   |   |   |   |   |   |   |   |   |   past_tense_verbs > 1: 0 (5.0)
|   |   |   |   |   |   |   |   |   |   |   |   |   |   |   |   |   coordinating_conjunctions > 1
|   |   |   |   |   |   |   |   |   |   |   |   |   |   |   |   |   |   all_upper_case_words <= 0: 4 (4.0)
|   |   |   |   |   |   |   |   |   |   |   |   |   |   |   |   |   |   all_upper_case_words > 0: 0 (4.0/1.0)
|   |   |   |   |   |   |   |   |   |   |   |   |   |   |   |   colons_and_semicolons > 0
|   |   |   |   |   |   |   |   |   |   |   |   |   |   |   |   |   third_person_pronouns <= 0: 4 (4.0)
|   |   |   |   |   |   |   |   |   |   |   |   |   |   |   |   |   third_person_pronouns > 0: 0 (2.0)
|   |   |   |   |   |   |   |   |   |   |   |   |   |   |   avg_token_len > 4.32
|   |   |   |   |   |   |   |   |   |   |   |   |   |   |   |   third_person_pronouns <= 0
|   |   |   |   |   |   |   |   |   |   |   |   |   |   |   |   |   adverbs <= 1
|   |   |   |   |   |   |   |   |   |   |   |   |   |   |   |   |   |   avg_sentence_len <= 11.666667
|   |   |   |   |   |   |   |   |   |   |   |   |   |   |   |   |   |   |   coordinating_conjunctions <= 0: 4 (83.0/29.0)
|   |   |   |   |   |   |   |   |   |   |   |   |   |   |   |   |   |   |   coordinating_conjunctions > 0
|   |   |   |   |   |   |   |   |   |   |   |   |   |   |   |   |   |   |   |   n_sentences <= 1: 4 (10.0/1.0)
|   |   |   |   |   |   |   |   |   |   |   |   |   |   |   |   |   |   |   |   n_sentences > 1
|   |   |   |   |   |   |   |   |   |   |   |   |   |   |   |   |   |   |   |   |   common_nouns <= 3: 0 (6.0/1.0)
|   |   |   |   |   |   |   |   |   |   |   |   |   |   |   |   |   |   |   |   |   common_nouns > 3: 4 (14.0/2.0)
|   |   |   |   |   |   |   |   |   |   |   |   |   |   |   |   |   |   avg_sentence_len > 11.666667: 0 (9.0/2.0)
|   |   |   |   |   |   |   |   |   |   |   |   |   |   |   |   |   adverbs > 1
|   |   |   |   |   |   |   |   |   |   |   |   |   |   |   |   |   |   past_tense_verbs <= 0: 4 (29.0/9.0)
|   |   |   |   |   |   |   |   |   |   |   |   |   |   |   |   |   |   past_tense_verbs > 0: 0 (6.0/1.0)
|   |   |   |   |   |   |   |   |   |   |   |   |   |   |   |   third_person_pronouns > 0
|   |   |   |   |   |   |   |   |   |   |   |   |   |   |   |   |   past_tense_verbs <= 1
|   |   |   |   |   |   |   |   |   |   |   |   |   |   |   |   |   |   n_sentences <= 1: 0 (9.0/2.0)
|   |   |   |   |   |   |   |   |   |   |   |   |   |   |   |   |   |   n_sentences > 1
|   |   |   |   |   |   |   |   |   |   |   |   |   |   |   |   |   |   |   n_sentences <= 2: 4 (7.0/1.0)
|   |   |   |   |   |   |   |   |   |   |   |   |   |   |   |   |   |   |   n_sentences > 2
|   |   |   |   |   |   |   |   |   |   |   |   |   |   |   |   |   |   |   |   common_nouns <= 3: 0 (2.0)
|   |   |   |   |   |   |   |   |   |   |   |   |   |   |   |   |   |   |   |   common_nouns > 3: 4 (7.0/2.0)
|   |   |   |   |   |   |   |   |   |   |   |   |   |   |   |   |   past_tense_verbs > 1: 0 (3.0)
|   |   |   |   |   |   |   |   |   |   |   |   |   |   avg_sentence_len > 13.5
|   |   |   |   |   |   |   |   |   |   |   |   |   |   |   coordinating_conjunctions <= 1
|   |   |   |   |   |   |   |   |   |   |   |   |   |   |   |   common_nouns <= 10: 4 (31.0/3.0)
|   |   |   |   |   |   |   |   |   |   |   |   |   |   |   |   common_nouns > 10: 0 (2.0)
|   |   |   |   |   |   |   |   |   |   |   |   |   |   |   coordinating_conjunctions > 1: 0 (3.0)
|   |   |   |   |   |   |   |   |   |   |   |   |   all_upper_case_words > 1
|   |   |   |   |   |   |   |   |   |   |   |   |   |   past_tense_verbs <= 1: 4 (31.0/8.0)
|   |   |   |   |   |   |   |   |   |   |   |   |   |   past_tense_verbs > 1: 0 (2.0)
|   |   |   |   |   |   |   |   |   |   |   |   proper_nouns > 0
|   |   |   |   |   |   |   |   |   |   |   |   |   colons_and_semicolons <= 1
|   |   |   |   |   |   |   |   |   |   |   |   |   |   colons_and_semicolons <= 0: 4 (63.0/19.0)
|   |   |   |   |   |   |   |   |   |   |   |   |   |   colons_and_semicolons > 0
|   |   |   |   |   |   |   |   |   |   |   |   |   |   |   coordinating_conjunctions <= 0: 0 (5.0)
|   |   |   |   |   |   |   |   |   |   |   |   |   |   |   coordinating_conjunctions > 0: 4 (2.0)
|   |   |   |   |   |   |   |   |   |   |   |   |   colons_and_semicolons > 1: 4 (6.0/1.0)
|   |   |   |   |   |   |   |   |   |   |   future_tense_verbs > 0
|   |   |   |   |   |   |   |   |   |   |   |   third_person_pronouns <= 0: 4 (21.0/3.0)
|   |   |   |   |   |   |   |   |   |   |   |   third_person_pronouns > 0
|   |   |   |   |   |   |   |   |   |   |   |   |   all_upper_case_words <= 0: 0 (6.0/1.0)
|   |   |   |   |   |   |   |   |   |   |   |   |   all_upper_case_words > 0: 4 (2.0)
|   |   |   |   |   |   |   |   |   |   adverbs > 2
|   |   |   |   |   |   |   |   |   |   |   dashes <= 0
|   |   |   |   |   |   |   |   |   |   |   |   colons_and_semicolons <= 1
|   |   |   |   |   |   |   |   |   |   |   |   |   colons_and_semicolons <= 0
|   |   |   |   |   |   |   |   |   |   |   |   |   |   n_sentences <= 3
|   |   |   |   |   |   |   |   |   |   |   |   |   |   |   past_tense_verbs <= 2
|   |   |   |   |   |   |   |   |   |   |   |   |   |   |   |   proper_nouns <= 0
|   |   |   |   |   |   |   |   |   |   |   |   |   |   |   |   |   avg_sentence_len <= 10.5
|   |   |   |   |   |   |   |   |   |   |   |   |   |   |   |   |   |   third_person_pronouns <= 1: 0 (18.0/1.0)
|   |   |   |   |   |   |   |   |   |   |   |   |   |   |   |   |   |   third_person_pronouns > 1: 4 (2.0)
|   |   |   |   |   |   |   |   |   |   |   |   |   |   |   |   |   avg_sentence_len > 10.5
|   |   |   |   |   |   |   |   |   |   |   |   |   |   |   |   |   |   third_person_pronouns <= 0: 4 (6.0)
|   |   |   |   |   |   |   |   |   |   |   |   |   |   |   |   |   |   third_person_pronouns > 0: 0 (4.0/1.0)
|   |   |   |   |   |   |   |   |   |   |   |   |   |   |   |   proper_nouns > 0
|   |   |   |   |   |   |   |   |   |   |   |   |   |   |   |   |   common_nouns <= 4: 0 (3.0/1.0)
|   |   |   |   |   |   |   |   |   |   |   |   |   |   |   |   |   common_nouns > 4: 4 (3.0)
|   |   |   |   |   |   |   |   |   |   |   |   |   |   |   past_tense_verbs > 2: 0 (3.0)
|   |   |   |   |   |   |   |   |   |   |   |   |   |   n_sentences > 3: 4 (5.0/1.0)
|   |   |   |   |   |   |   |   |   |   |   |   |   colons_and_semicolons > 0: 0 (5.0/1.0)
|   |   |   |   |   |   |   |   |   |   |   |   colons_and_semicolons > 1: 4 (4.0/1.0)
|   |   |   |   |   |   |   |   |   |   |   dashes > 0
|   |   |   |   |   |   |   |   |   |   |   |   common_nouns <= 3: 0 (2.0)
|   |   |   |   |   |   |   |   |   |   |   |   common_nouns > 3: 4 (6.0/1.0)
|   |   |   |   |   |   |   |   |   wh_words > 0
|   |   |   |   |   |   |   |   |   |   third_person_pronouns <= 2
|   |   |   |   |   |   |   |   |   |   |   coordinating_conjunctions <= 0
|   |   |   |   |   |   |   |   |   |   |   |   colons_and_semicolons <= 0
|   |   |   |   |   |   |   |   |   |   |   |   |   common_nouns <= 5
|   |   |   |   |   |   |   |   |   |   |   |   |   |   all_upper_case_words <= 0
|   |   |   |   |   |   |   |   |   |   |   |   |   |   |   common_nouns <= 3
|   |   |   |   |   |   |   |   |   |   |   |   |   |   |   |   n_sentences <= 1: 0 (4.0)
|   |   |   |   |   |   |   |   |   |   |   |   |   |   |   |   n_sentences > 1
|   |   |   |   |   |   |   |   |   |   |   |   |   |   |   |   |   avg_sentence_len <= 5.833333: 0 (2.0)
|   |   |   |   |   |   |   |   |   |   |   |   |   |   |   |   |   avg_sentence_len > 5.833333: 4 (2.0)
|   |   |   |   |   |   |   |   |   |   |   |   |   |   |   common_nouns > 3
|   |   |   |   |   |   |   |   |   |   |   |   |   |   |   |   avg_sentence_len <= 11: 4 (6.0/1.0)
|   |   |   |   |   |   |   |   |   |   |   |   |   |   |   |   avg_sentence_len > 11: 0 (3.0/1.0)
|   |   |   |   |   |   |   |   |   |   |   |   |   |   all_upper_case_words > 0: 0 (9.0/1.0)
|   |   |   |   |   |   |   |   |   |   |   |   |   common_nouns > 5: 0 (5.0)
|   |   |   |   |   |   |   |   |   |   |   |   colons_and_semicolons > 0
|   |   |   |   |   |   |   |   |   |   |   |   |   avg_token_len <= 5.105263: 4 (3.0)
|   |   |   |   |   |   |   |   |   |   |   |   |   avg_token_len > 5.105263: 0 (2.0)
|   |   |   |   |   |   |   |   |   |   |   coordinating_conjunctions > 0
|   |   |   |   |   |   |   |   |   |   |   |   third_person_pronouns <= 0: 4 (7.0/1.0)
|   |   |   |   |   |   |   |   |   |   |   |   third_person_pronouns > 0: 0 (2.0)
|   |   |   |   |   |   |   |   |   |   third_person_pronouns > 2: 4 (3.0)
|   |   |   |   |   |   |   |   commas > 0
|   |   |   |   |   |   |   |   |   adverbs <= 1
|   |   |   |   |   |   |   |   |   |   proper_nouns <= 0: 4 (106.0/23.0)
|   |   |   |   |   |   |   |   |   |   proper_nouns > 0
|   |   |   |   |   |   |   |   |   |   |   avg_sentence_len <= 13.5
|   |   |   |   |   |   |   |   |   |   |   |   all_upper_case_words <= 0
|   |   |   |   |   |   |   |   |   |   |   |   |   avg_token_len <= 4.652174: 4 (2.0)
|   |   |   |   |   |   |   |   |   |   |   |   |   avg_token_len > 4.652174: 0 (5.0/1.0)
|   |   |   |   |   |   |   |   |   |   |   |   all_upper_case_words > 0: 0 (4.0/1.0)
|   |   |   |   |   |   |   |   |   |   |   avg_sentence_len > 13.5: 4 (5.0)
|   |   |   |   |   |   |   |   |   adverbs > 1
|   |   |   |   |   |   |   |   |   |   future_tense_verbs <= 0
|   |   |   |   |   |   |   |   |   |   |   colons_and_semicolons <= 0
|   |   |   |   |   |   |   |   |   |   |   |   n_sentences <= 1
|   |   |   |   |   |   |   |   |   |   |   |   |   all_upper_case_words <= 0
|   |   |   |   |   |   |   |   |   |   |   |   |   |   coordinating_conjunctions <= 0: 0 (19.0/5.0)
|   |   |   |   |   |   |   |   |   |   |   |   |   |   coordinating_conjunctions > 0
|   |   |   |   |   |   |   |   |   |   |   |   |   |   |   third_person_pronouns <= 0: 4 (7.0)
|   |   |   |   |   |   |   |   |   |   |   |   |   |   |   third_person_pronouns > 0
|   |   |   |   |   |   |   |   |   |   |   |   |   |   |   |   avg_token_len <= 4.45: 4 (3.0/1.0)
|   |   |   |   |   |   |   |   |   |   |   |   |   |   |   |   avg_token_len > 4.45: 0 (4.0)
|   |   |   |   |   |   |   |   |   |   |   |   |   all_upper_case_words > 0: 4 (5.0/1.0)
|   |   |   |   |   |   |   |   |   |   |   |   n_sentences > 1
|   |   |   |   |   |   |   |   |   |   |   |   |   all_upper_case_words <= 1
|   |   |   |   |   |   |   |   |   |   |   |   |   |   wh_words <= 0
|   |   |   |   |   |   |   |   |   |   |   |   |   |   |   coordinating_conjunctions <= 2: 4 (46.0/10.0)
|   |   |   |   |   |   |   |   |   |   |   |   |   |   |   coordinating_conjunctions > 2: 0 (2.0)
|   |   |   |   |   |   |   |   |   |   |   |   |   |   wh_words > 0
|   |   |   |   |   |   |   |   |   |   |   |   |   |   |   all_upper_case_words <= 0: 4 (3.0)
|   |   |   |   |   |   |   |   |   |   |   |   |   |   |   all_upper_case_words > 0: 0 (3.0)
|   |   |   |   |   |   |   |   |   |   |   |   |   all_upper_case_words > 1: 0 (5.0/1.0)
|   |   |   |   |   |   |   |   |   |   |   colons_and_semicolons > 0
|   |   |   |   |   |   |   |   |   |   |   |   avg_token_len <= 4.090909: 0 (4.0/1.0)
|   |   |   |   |   |   |   |   |   |   |   |   avg_token_len > 4.090909: 4 (9.0)
|   |   |   |   |   |   |   |   |   |   future_tense_verbs > 0
|   |   |   |   |   |   |   |   |   |   |   avg_token_len <= 3.964286: 0 (5.0)
|   |   |   |   |   |   |   |   |   |   |   avg_token_len > 3.964286: 4 (6.0/1.0)
|   |   |   |   |   |   |   parentheses > 0
|   |   |   |   |   |   |   |   coordinating_conjunctions <= 1: 4 (21.0/2.0)
|   |   |   |   |   |   |   |   coordinating_conjunctions > 1
|   |   |   |   |   |   |   |   |   third_person_pronouns <= 0: 4 (5.0/1.0)
|   |   |   |   |   |   |   |   |   third_person_pronouns > 0: 0 (5.0)
|   |   |   |   |   |   proper_nouns > 1
|   |   |   |   |   |   |   wh_words <= 0
|   |   |   |   |   |   |   |   coordinating_conjunctions <= 0
|   |   |   |   |   |   |   |   |   past_tense_verbs <= 0
|   |   |   |   |   |   |   |   |   |   colons_and_semicolons <= 0
|   |   |   |   |   |   |   |   |   |   |   avg_sentence_len <= 12.5: 4 (10.0/2.0)
|   |   |   |   |   |   |   |   |   |   |   avg_sentence_len > 12.5: 0 (2.0)
|   |   |   |   |   |   |   |   |   |   colons_and_semicolons > 0
|   |   |   |   |   |   |   |   |   |   |   avg_sentence_len <= 15: 0 (4.0)
|   |   |   |   |   |   |   |   |   |   |   avg_sentence_len > 15: 4 (2.0)
|   |   |   |   |   |   |   |   |   past_tense_verbs > 0: 4 (6.0)
|   |   |   |   |   |   |   |   coordinating_conjunctions > 0
|   |   |   |   |   |   |   |   |   avg_sentence_len <= 5.833333: 4 (3.0)
|   |   |   |   |   |   |   |   |   avg_sentence_len > 5.833333
|   |   |   |   |   |   |   |   |   |   colons_and_semicolons <= 0
|   |   |   |   |   |   |   |   |   |   |   third_person_pronouns <= 0
|   |   |   |   |   |   |   |   |   |   |   |   common_nouns <= 4
|   |   |   |   |   |   |   |   |   |   |   |   |   commas <= 0: 0 (3.0)
|   |   |   |   |   |   |   |   |   |   |   |   |   commas > 0: 4 (3.0)
|   |   |   |   |   |   |   |   |   |   |   |   common_nouns > 4: 0 (9.0)
|   |   |   |   |   |   |   |   |   |   |   third_person_pronouns > 0
|   |   |   |   |   |   |   |   |   |   |   |   avg_token_len <= 3.964286: 0 (2.0)
|   |   |   |   |   |   |   |   |   |   |   |   avg_token_len > 3.964286: 4 (3.0)
|   |   |   |   |   |   |   |   |   |   colons_and_semicolons > 0: 0 (5.0)
|   |   |   |   |   |   |   wh_words > 0: 0 (5.0/1.0)
|   |   |   |   |   proper_nouns > 2
|   |   |   |   |   |   n_sentences <= 2
|   |   |   |   |   |   |   proper_nouns <= 3: 4 (16.0)
|   |   |   |   |   |   |   proper_nouns > 3
|   |   |   |   |   |   |   |   coordinating_conjunctions <= 1
|   |   |   |   |   |   |   |   |   colons_and_semicolons <= 0: 0 (3.0)
|   |   |   |   |   |   |   |   |   colons_and_semicolons > 0: 4 (2.0)
|   |   |   |   |   |   |   |   coordinating_conjunctions > 1: 4 (4.0)
|   |   |   |   |   |   n_sentences > 2
|   |   |   |   |   |   |   past_tense_verbs <= 0
|   |   |   |   |   |   |   |   commas <= 0: 4 (4.0)
|   |   |   |   |   |   |   |   commas > 0: 0 (2.0)
|   |   |   |   |   |   |   past_tense_verbs > 0: 0 (3.0)
|   |   |   second_person_pronouns > 0
|   |   |   |   n_sentences <= 2
|   |   |   |   |   all_upper_case_words <= 1
|   |   |   |   |   |   past_tense_verbs <= 0: 4 (239.0/68.0)
|   |   |   |   |   |   past_tense_verbs > 0
|   |   |   |   |   |   |   parentheses <= 0
|   |   |   |   |   |   |   |   n_sentences <= 1
|   |   |   |   |   |   |   |   |   proper_nouns <= 0
|   |   |   |   |   |   |   |   |   |   avg_sentence_len <= 15
|   |   |   |   |   |   |   |   |   |   |   avg_token_len <= 4.894737: 0 (6.0)
|   |   |   |   |   |   |   |   |   |   |   avg_token_len > 4.894737: 4 (2.0)
|   |   |   |   |   |   |   |   |   |   avg_sentence_len > 15: 4 (12.0/1.0)
|   |   |   |   |   |   |   |   |   proper_nouns > 0: 4 (5.0/2.0)
|   |   |   |   |   |   |   |   n_sentences > 1
|   |   |   |   |   |   |   |   |   coordinating_conjunctions <= 0
|   |   |   |   |   |   |   |   |   |   avg_sentence_len <= 6.25: 0 (4.0/1.0)
|   |   |   |   |   |   |   |   |   |   avg_sentence_len > 6.25: 4 (9.0/2.0)
|   |   |   |   |   |   |   |   |   coordinating_conjunctions > 0
|   |   |   |   |   |   |   |   |   |   second_person_pronouns <= 1
|   |   |   |   |   |   |   |   |   |   |   past_tense_verbs <= 1: 0 (3.0)
|   |   |   |   |   |   |   |   |   |   |   past_tense_verbs > 1: 4 (4.0)
|   |   |   |   |   |   |   |   |   |   second_person_pronouns > 1: 0 (7.0/1.0)
|   |   |   |   |   |   |   parentheses > 0: 4 (3.0/1.0)
|   |   |   |   |   all_upper_case_words > 1
|   |   |   |   |   |   second_person_pronouns <= 1
|   |   |   |   |   |   |   colons_and_semicolons <= 0
|   |   |   |   |   |   |   |   proper_nouns <= 0: 4 (7.0)
|   |   |   |   |   |   |   |   proper_nouns > 0
|   |   |   |   |   |   |   |   |   common_nouns <= 6: 0 (3.0)
|   |   |   |   |   |   |   |   |   common_nouns > 6: 4 (3.0)
|   |   |   |   |   |   |   colons_and_semicolons > 0: 0 (5.0/1.0)
|   |   |   |   |   |   second_person_pronouns > 1: 0 (12.0)
|   |   |   |   n_sentences > 2: 4 (82.0/12.0)
|   ellipses > 0
|   |   common_nouns <= 2
|   |   |   coordinating_conjunctions <= 0
|   |   |   |   wh_words <= 0
|   |   |   |   |   ellipses <= 1
|   |   |   |   |   |   proper_nouns <= 0
|   |   |   |   |   |   |   third_person_pronouns <= 0
|   |   |   |   |   |   |   |   past_tense_verbs <= 0
|   |   |   |   |   |   |   |   |   n_sentences <= 1
|   |   |   |   |   |   |   |   |   |   second_person_pronouns <= 0
|   |   |   |   |   |   |   |   |   |   |   common_nouns <= 1
|   |   |   |   |   |   |   |   |   |   |   |   avg_token_len <= 4.35: 0 (9.0)
|   |   |   |   |   |   |   |   |   |   |   |   avg_token_len > 4.35
|   |   |   |   |   |   |   |   |   |   |   |   |   avg_token_len <= 5.3: 4 (10.0/2.0)
|   |   |   |   |   |   |   |   |   |   |   |   |   avg_token_len > 5.3: 0 (18.0/6.0)
|   |   |   |   |   |   |   |   |   |   |   common_nouns > 1: 0 (28.0/10.0)
|   |   |   |   |   |   |   |   |   |   second_person_pronouns > 0: 0 (8.0/2.0)
|   |   |   |   |   |   |   |   |   n_sentences > 1
|   |   |   |   |   |   |   |   |   |   avg_token_len <= 5.6: 0 (34.0/4.0)
|   |   |   |   |   |   |   |   |   |   avg_token_len > 5.6: 4 (2.0)
|   |   |   |   |   |   |   |   past_tense_verbs > 0
|   |   |   |   |   |   |   |   |   avg_token_len <= 4.833333: 4 (6.0/1.0)
|   |   |   |   |   |   |   |   |   avg_token_len > 4.833333: 0 (7.0)
|   |   |   |   |   |   |   third_person_pronouns > 0: 0 (21.0/6.0)
|   |   |   |   |   |   proper_nouns > 0
|   |   |   |   |   |   |   common_nouns <= 1
|   |   |   |   |   |   |   |   adverbs <= 0: 4 (11.0)
|   |   |   |   |   |   |   |   adverbs > 0: 0 (12.0/3.0)
|   |   |   |   |   |   |   common_nouns > 1: 0 (11.0/1.0)
|   |   |   |   |   ellipses > 1
|   |   |   |   |   |   ellipses <= 2: 0 (18.0/2.0)
|   |   |   |   |   |   ellipses > 2: 4 (4.0/1.0)
|   |   |   |   wh_words > 0: 0 (8.0/1.0)
|   |   |   coordinating_conjunctions > 0
|   |   |   |   coordinating_conjunctions <= 1
|   |   |   |   |   past_tense_verbs <= 0
|   |   |   |   |   |   ellipses <= 2
|   |   |   |   |   |   |   adverbs <= 0
|   |   |   |   |   |   |   |   n_sentences <= 1
|   |   |   |   |   |   |   |   |   all_upper_case_words <= 0
|   |   |   |   |   |   |   |   |   |   avg_token_len <= 5.0625: 4 (2.0)
|   |   |   |   |   |   |   |   |   |   avg_token_len > 5.0625: 0 (3.0)
|   |   |   |   |   |   |   |   |   all_upper_case_words > 0: 0 (3.0/1.0)
|   |   |   |   |   |   |   |   n_sentences > 1: 4 (10.0/2.0)
|   |   |   |   |   |   |   adverbs > 0: 0 (12.0/1.0)
|   |   |   |   |   |   ellipses > 2: 0 (2.0)
|   |   |   |   |   past_tense_verbs > 0: 4 (3.0)
|   |   |   |   coordinating_conjunctions > 1: 4 (5.0)
|   |   common_nouns > 2
|   |   |   past_tense_verbs <= 1
|   |   |   |   second_person_pronouns <= 0
|   |   |   |   |   wh_words <= 0
|   |   |   |   |   |   dashes <= 0
|   |   |   |   |   |   |   past_tense_verbs <= 0
|   |   |   |   |   |   |   |   commas <= 0
|   |   |   |   |   |   |   |   |   avg_token_len <= 3.875: 0 (20.0/4.0)
|   |   |   |   |   |   |   |   |   avg_token_len > 3.875
|   |   |   |   |   |   |   |   |   |   colons_and_semicolons <= 1
|   |   |   |   |   |   |   |   |   |   |   coordinating_conjunctions <= 1
|   |   |   |   |   |   |   |   |   |   |   |   common_nouns <= 6
|   |   |   |   |   |   |   |   |   |   |   |   |   coordinating_conjunctions <= 0
|   |   |   |   |   |   |   |   |   |   |   |   |   |   adverbs <= 0: 4 (41.0/14.0)
|   |   |   |   |   |   |   |   |   |   |   |   |   |   adverbs > 0
|   |   |   |   |   |   |   |   |   |   |   |   |   |   |   third_person_pronouns <= 1
|   |   |   |   |   |   |   |   |   |   |   |   |   |   |   |   third_person_pronouns <= 0
|   |   |   |   |   |   |   |   |   |   |   |   |   |   |   |   |   common_nouns <= 3
|   |   |   |   |   |   |   |   |   |   |   |   |   |   |   |   |   |   proper_nouns <= 0
|   |   |   |   |   |   |   |   |   |   |   |   |   |   |   |   |   |   |   avg_sentence_len <= 8.5: 0 (11.0)
|   |   |   |   |   |   |   |   |   |   |   |   |   |   |   |   |   |   |   avg_sentence_len > 8.5
|   |   |   |   |   |   |   |   |   |   |   |   |   |   |   |   |   |   |   |   all_upper_case_words <= 0: 4 (2.0)
|   |   |   |   |   |   |   |   |   |   |   |   |   |   |   |   |   |   |   |   all_upper_case_words > 0: 0 (3.0/1.0)
|   |   |   |   |   |   |   |   |   |   |   |   |   |   |   |   |   |   proper_nouns > 0: 4 (3.0/1.0)
|   |   |   |   |   |   |   |   |   |   |   |   |   |   |   |   |   common_nouns > 3
|   |   |   |   |   |   |   |   |   |   |   |   |   |   |   |   |   |   proper_nouns <= 1: 4 (11.0/1.0)
|   |   |   |   |   |   |   |   |   |   |   |   |   |   |   |   |   |   proper_nouns > 1: 0 (3.0/1.0)
|   |   |   |   |   |   |   |   |   |   |   |   |   |   |   |   third_person_pronouns > 0: 0 (5.0/1.0)
|   |   |   |   |   |   |   |   |   |   |   |   |   |   |   third_person_pronouns > 1: 4 (2.0)
|   |   |   |   |   |   |   |   |   |   |   |   |   coordinating_conjunctions > 0
|   |   |   |   |   |   |   |   |   |   |   |   |   |   colons_and_semicolons <= 0
|   |   |   |   |   |   |   |   |   |   |   |   |   |   |   n_sentences <= 3
|   |   |   |   |   |   |   |   |   |   |   |   |   |   |   |   avg_sentence_len <= 5.75: 0 (4.0)
|   |   |   |   |   |   |   |   |   |   |   |   |   |   |   |   avg_sentence_len > 5.75
|   |   |   |   |   |   |   |   |   |   |   |   |   |   |   |   |   n_sentences <= 2
|   |   |   |   |   |   |   |   |   |   |   |   |   |   |   |   |   |   avg_token_len <= 5.190476
|   |   |   |   |   |   |   |   |   |   |   |   |   |   |   |   |   |   |   avg_token_len <= 4.25: 0 (4.0/1.0)
|   |   |   |   |   |   |   |   |   |   |   |   |   |   |   |   |   |   |   avg_token_len > 4.25: 4 (11.0/1.0)
|   |   |   |   |   |   |   |   |   |   |   |   |   |   |   |   |   |   avg_token_len > 5.190476: 0 (4.0/1.0)
|   |   |   |   |   |   |   |   |   |   |   |   |   |   |   |   |   n_sentences > 2: 0 (4.0/1.0)
|   |   |   |   |   |   |   |   |   |   |   |   |   |   |   n_sentences > 3: 4 (3.0)
|   |   |   |   |   |   |   |   |   |   |   |   |   |   colons_and_semicolons > 0: 0 (3.0)
|   |   |   |   |   |   |   |   |   |   |   |   common_nouns > 6
|   |   |   |   |   |   |   |   |   |   |   |   |   coordinating_conjunctions <= 0
|   |   |   |   |   |   |   |   |   |   |   |   |   |   avg_token_len <= 4.222222: 0 (2.0)
|   |   |   |   |   |   |   |   |   |   |   |   |   |   avg_token_len > 4.222222: 4 (10.0/1.0)
|   |   |   |   |   |   |   |   |   |   |   |   |   coordinating_conjunctions > 0: 4 (7.0)
|   |   |   |   |   |   |   |   |   |   |   coordinating_conjunctions > 1
|   |   |   |   |   |   |   |   |   |   |   |   common_nouns <= 3: 4 (2.0)
|   |   |   |   |   |   |   |   |   |   |   |   common_nouns > 3: 0 (5.0)
|   |   |   |   |   |   |   |   |   |   colons_and_semicolons > 1
|   |   |   |   |   |   |   |   |   |   |   adverbs <= 0: 0 (3.0/1.0)
|   |   |   |   |   |   |   |   |   |   |   adverbs > 0: 4 (7.0)
|   |   |   |   |   |   |   |   commas > 0
|   |   |   |   |   |   |   |   |   ellipses <= 1
|   |   |   |   |   |   |   |   |   |   coordinating_conjunctions <= 0
|   |   |   |   |   |   |   |   |   |   |   common_nouns <= 3
|   |   |   |   |   |   |   |   |   |   |   |   avg_sentence_len <= 11.666667: 4 (3.0)
|   |   |   |   |   |   |   |   |   |   |   |   avg_sentence_len > 11.666667: 0 (3.0)
|   |   |   |   |   |   |   |   |   |   |   common_nouns > 3: 4 (18.0/2.0)
|   |   |   |   |   |   |   |   |   |   coordinating_conjunctions > 0
|   |   |   |   |   |   |   |   |   |   |   colons_and_semicolons <= 0
|   |   |   |   |   |   |   |   |   |   |   |   adverbs <= 0: 0 (4.0/1.0)
|   |   |   |   |   |   |   |   |   |   |   |   adverbs > 0: 4 (11.0/2.0)
|   |   |   |   |   |   |   |   |   |   |   colons_and_semicolons > 0: 0 (2.0)
|   |   |   |   |   |   |   |   |   ellipses > 1: 0 (3.0/1.0)
|   |   |   |   |   |   |   past_tense_verbs > 0
|   |   |   |   |   |   |   |   avg_sentence_len <= 6.333333: 4 (7.0)
|   |   |   |   |   |   |   |   avg_sentence_len > 6.333333
|   |   |   |   |   |   |   |   |   ellipses <= 2
|   |   |   |   |   |   |   |   |   |   all_upper_case_words <= 2
|   |   |   |   |   |   |   |   |   |   |   third_person_pronouns <= 0
|   |   |   |   |   |   |   |   |   |   |   |   coordinating_conjunctions <= 1
|   |   |   |   |   |   |   |   |   |   |   |   |   proper_nouns <= 1
|   |   |   |   |   |   |   |   |   |   |   |   |   |   coordinating_conjunctions <= 0: 4 (12.0/2.0)
|   |   |   |   |   |   |   |   |   |   |   |   |   |   coordinating_conjunctions > 0: 0 (4.0/1.0)
|   |   |   |   |   |   |   |   |   |   |   |   |   proper_nouns > 1: 0 (6.0)
|   |   |   |   |   |   |   |   |   |   |   |   coordinating_conjunctions > 1: 4 (3.0/1.0)
|   |   |   |   |   |   |   |   |   |   |   third_person_pronouns > 0: 0 (14.0/1.0)
|   |   |   |   |   |   |   |   |   |   all_upper_case_words > 2: 4 (4.0)
|   |   |   |   |   |   |   |   |   ellipses > 2: 0 (3.0)
|   |   |   |   |   |   dashes > 0: 4 (18.0/5.0)
|   |   |   |   |   wh_words > 0
|   |   |   |   |   |   third_person_pronouns <= 0
|   |   |   |   |   |   |   adverbs <= 0: 4 (6.0/1.0)
|   |   |   |   |   |   |   adverbs > 0: 0 (14.0/4.0)
|   |   |   |   |   |   third_person_pronouns > 0
|   |   |   |   |   |   |   common_nouns <= 4: 0 (5.0)
|   |   |   |   |   |   |   common_nouns > 4: 4 (4.0/1.0)
|   |   |   |   second_person_pronouns > 0
|   |   |   |   |   all_upper_case_words <= 4: 4 (75.0/23.0)
|   |   |   |   |   all_upper_case_words > 4: 0 (4.0)
|   |   |   past_tense_verbs > 1
|   |   |   |   ellipses <= 2: 0 (22.0/5.0)
|   |   |   |   ellipses > 2: 4 (2.0)
first_person_pronouns > 0
|   dashes <= 0
|   |   common_nouns <= 1
|   |   |   commas <= 0
|   |   |   |   future_tense_verbs <= 0
|   |   |   |   |   common_nouns <= 0
|   |   |   |   |   |   avg_sentence_len <= 2.75
|   |   |   |   |   |   |   avg_token_len <= 3.1: 0 (3.0/1.0)
|   |   |   |   |   |   |   avg_token_len > 3.1: 4 (3.0)
|   |   |   |   |   |   avg_sentence_len > 2.75: 0 (98.0/13.0)
|   |   |   |   |   common_nouns > 0
|   |   |   |   |   |   proper_nouns <= 0: 0 (397.0/86.0)
|   |   |   |   |   |   proper_nouns > 0
|   |   |   |   |   |   |   proper_nouns <= 3
|   |   |   |   |   |   |   |   second_person_pronouns <= 0
|   |   |   |   |   |   |   |   |   avg_sentence_len <= 7.25: 0 (32.0/7.0)
|   |   |   |   |   |   |   |   |   avg_sentence_len > 7.25
|   |   |   |   |   |   |   |   |   |   avg_sentence_len <= 9: 4 (14.0/2.0)
|   |   |   |   |   |   |   |   |   |   avg_sentence_len > 9
|   |   |   |   |   |   |   |   |   |   |   adverbs <= 0: 4 (5.0/1.0)
|   |   |   |   |   |   |   |   |   |   |   adverbs > 0: 0 (11.0/1.0)
|   |   |   |   |   |   |   |   second_person_pronouns > 0: 0 (7.0/1.0)
|   |   |   |   |   |   |   proper_nouns > 3: 0 (5.0)
|   |   |   |   future_tense_verbs > 0
|   |   |   |   |   common_nouns <= 0: 0 (6.0)
|   |   |   |   |   common_nouns > 0
|   |   |   |   |   |   n_sentences <= 1
|   |   |   |   |   |   |   avg_sentence_len <= 10.5
|   |   |   |   |   |   |   |   avg_sentence_len <= 6.5: 0 (3.0/1.0)
|   |   |   |   |   |   |   |   avg_sentence_len > 6.5: 4 (8.0)
|   |   |   |   |   |   |   avg_sentence_len > 10.5
|   |   |   |   |   |   |   |   avg_token_len <= 4.2: 0 (7.0)
|   |   |   |   |   |   |   |   avg_token_len > 4.2: 4 (3.0/1.0)
|   |   |   |   |   |   n_sentences > 1: 0 (7.0/1.0)
|   |   |   commas > 0
|   |   |   |   avg_token_len <= 4.8: 0 (70.0/22.0)
|   |   |   |   avg_token_len > 4.8: 4 (9.0)
|   |   common_nouns > 1
|   |   |   first_person_pronouns <= 1
|   |   |   |   past_tense_verbs <= 1
|   |   |   |   |   coordinating_conjunctions <= 2
|   |   |   |   |   |   third_person_pronouns <= 1
|   |   |   |   |   |   |   commas <= 0
|   |   |   |   |   |   |   |   adverbs <= 0
|   |   |   |   |   |   |   |   |   future_tense_verbs <= 0
|   |   |   |   |   |   |   |   |   |   second_person_pronouns <= 0
|   |   |   |   |   |   |   |   |   |   |   proper_nouns <= 0
|   |   |   |   |   |   |   |   |   |   |   |   coordinating_conjunctions <= 0
|   |   |   |   |   |   |   |   |   |   |   |   |   ellipses <= 0
|   |   |   |   |   |   |   |   |   |   |   |   |   |   wh_words <= 0
|   |   |   |   |   |   |   |   |   |   |   |   |   |   |   colons_and_semicolons <= 0
|   |   |   |   |   |   |   |   |   |   |   |   |   |   |   |   third_person_pronouns <= 0
|   |   |   |   |   |   |   |   |   |   |   |   |   |   |   |   |   avg_token_len <= 3.894737: 0 (73.0/21.0)
|   |   |   |   |   |   |   |   |   |   |   |   |   |   |   |   |   avg_token_len > 3.894737
|   |   |   |   |   |   |   |   |   |   |   |   |   |   |   |   |   |   past_tense_verbs <= 0: 4 (143.0/70.0)
|   |   |   |   |   |   |   |   |   |   |   |   |   |   |   |   |   |   past_tense_verbs > 0
|   |   |   |   |   |   |   |   |   |   |   |   |   |   |   |   |   |   |   all_upper_case_words <= 1
|   |   |   |   |   |   |   |   |   |   |   |   |   |   |   |   |   |   |   |   all_upper_case_words <= 0: 4 (18.0/6.0)
|   |   |   |   |   |   |   |   |   |   |   |   |   |   |   |   |   |   |   |   all_upper_case_words > 0
|   |   |   |   |   |   |   |   |   |   |   |   |   |   |   |   |   |   |   |   |   avg_token_len <= 4.5: 4 (3.0)
|   |   |   |   |   |   |   |   |   |   |   |   |   |   |   |   |   |   |   |   |   avg_token_len > 4.5: 0 (4.0)
|   |   |   |   |   |   |   |   |   |   |   |   |   |   |   |   |   |   |   all_upper_case_words > 1: 0 (2.0)
|   |   |   |   |   |   |   |   |   |   |   |   |   |   |   |   third_person_pronouns > 0
|   |   |   |   |   |   |   |   |   |   |   |   |   |   |   |   |   past_tense_verbs <= 0
|   |   |   |   |   |   |   |   |   |   |   |   |   |   |   |   |   |   avg_token_len <= 3.892857: 4 (7.0/1.0)
|   |   |   |   |   |   |   |   |   |   |   |   |   |   |   |   |   |   avg_token_len > 3.892857: 0 (24.0/6.0)
|   |   |   |   |   |   |   |   |   |   |   |   |   |   |   |   |   past_tense_verbs > 0
|   |   |   |   |   |   |   |   |   |   |   |   |   |   |   |   |   |   n_sentences <= 1: 4 (4.0/1.0)
|   |   |   |   |   |   |   |   |   |   |   |   |   |   |   |   |   |   n_sentences > 1: 0 (8.0/2.0)
|   |   |   |   |   |   |   |   |   |   |   |   |   |   |   colons_and_semicolons > 0: 0 (22.0/8.0)
|   |   |   |   |   |   |   |   |   |   |   |   |   |   wh_words > 0
|   |   |   |   |   |   |   |   |   |   |   |   |   |   |   common_nouns <= 3: 4 (12.0/1.0)
|   |   |   |   |   |   |   |   |   |   |   |   |   |   |   common_nouns > 3
|   |   |   |   |   |   |   |   |   |   |   |   |   |   |   |   all_upper_case_words <= 0
|   |   |   |   |   |   |   |   |   |   |   |   |   |   |   |   |   n_sentences <= 1: 0 (3.0)
|   |   |   |   |   |   |   |   |   |   |   |   |   |   |   |   |   n_sentences > 1: 4 (3.0)
|   |   |   |   |   |   |   |   |   |   |   |   |   |   |   |   all_upper_case_words > 0: 0 (5.0)
|   |   |   |   |   |   |   |   |   |   |   |   |   ellipses > 0
|   |   |   |   |   |   |   |   |   |   |   |   |   |   ellipses <= 2
|   |   |   |   |   |   |   |   |   |   |   |   |   |   |   past_tense_verbs <= 0
|   |   |   |   |   |   |   |   |   |   |   |   |   |   |   |   colons_and_semicolons <= 1
|   |   |   |   |   |   |   |   |   |   |   |   |   |   |   |   |   third_person_pronouns <= 0
|   |   |   |   |   |   |   |   |   |   |   |   |   |   |   |   |   |   avg_token_len <= 4.142857: 0 (5.0)
|   |   |   |   |   |   |   |   |   |   |   |   |   |   |   |   |   |   avg_token_len > 4.142857
|   |   |   |   |   |   |   |   |   |   |   |   |   |   |   |   |   |   |   avg_sentence_len <= 8.5: 4 (13.0/3.0)
|   |   |   |   |   |   |   |   |   |   |   |   |   |   |   |   |   |   |   avg_sentence_len > 8.5: 0 (8.0/2.0)
|   |   |   |   |   |   |   |   |   |   |   |   |   |   |   |   |   third_person_pronouns > 0
|   |   |   |   |   |   |   |   |   |   |   |   |   |   |   |   |   |   ellipses <= 1: 0 (6.0)
|   |   |   |   |   |   |   |   |   |   |   |   |   |   |   |   |   |   ellipses > 1: 4 (2.0)
|   |   |   |   |   |   |   |   |   |   |   |   |   |   |   |   colons_and_semicolons > 1: 4 (2.0)
|   |   |   |   |   |   |   |   |   |   |   |   |   |   |   past_tense_verbs > 0: 0 (8.0/1.0)
|   |   |   |   |   |   |   |   |   |   |   |   |   |   ellipses > 2: 0 (4.0)
|   |   |   |   |   |   |   |   |   |   |   |   coordinating_conjunctions > 0
|   |   |   |   |   |   |   |   |   |   |   |   |   avg_token_len <= 3.37931: 0 (13.0/2.0)
|   |   |   |   |   |   |   |   |   |   |   |   |   avg_token_len > 3.37931
|   |   |   |   |   |   |   |   |   |   |   |   |   |   past_tense_verbs <= 0: 4 (72.0/23.0)
|   |   |   |   |   |   |   |   |   |   |   |   |   |   past_tense_verbs > 0
|   |   |   |   |   |   |   |   |   |   |   |   |   |   |   all_upper_case_words <= 0
|   |   |   |   |   |   |   |   |   |   |   |   |   |   |   |   n_sentences <= 1
|   |   |   |   |   |   |   |   |   |   |   |   |   |   |   |   |   avg_token_len <= 3.625: 4 (2.0)
|   |   |   |   |   |   |   |   |   |   |   |   |   |   |   |   |   avg_token_len > 3.625: 0 (9.0/2.0)
|   |   |   |   |   |   |   |   |   |   |   |   |   |   |   |   n_sentences > 1: 0 (4.0/2.0)
|   |   |   |   |   |   |   |   |   |   |   |   |   |   |   all_upper_case_words > 0: 4 (3.0/1.0)
|   |   |   |   |   |   |   |   |   |   |   proper_nouns > 0
|   |   |   |   |   |   |   |   |   |   |   |   third_person_pronouns <= 0
|   |   |   |   |   |   |   |   |   |   |   |   |   past_tense_verbs <= 0
|   |   |   |   |   |   |   |   |   |   |   |   |   |   colons_and_semicolons <= 1
|   |   |   |   |   |   |   |   |   |   |   |   |   |   |   wh_words <= 0
|   |   |   |   |   |   |   |   |   |   |   |   |   |   |   |   colons_and_semicolons <= 0
|   |   |   |   |   |   |   |   |   |   |   |   |   |   |   |   |   avg_sentence_len <= 6.75: 4 (23.0/3.0)
|   |   |   |   |   |   |   |   |   |   |   |   |   |   |   |   |   avg_sentence_len > 6.75
|   |   |   |   |   |   |   |   |   |   |   |   |   |   |   |   |   |   n_sentences <= 1
|   |   |   |   |   |   |   |   |   |   |   |   |   |   |   |   |   |   |   ellipses <= 0
|   |   |   |   |   |   |   |   |   |   |   |   |   |   |   |   |   |   |   |   common_nouns <= 2: 0 (6.0/1.0)
|   |   |   |   |   |   |   |   |   |   |   |   |   |   |   |   |   |   |   |   common_nouns > 2
|   |   |   |   |   |   |   |   |   |   |   |   |   |   |   |   |   |   |   |   |   common_nouns <= 3
|   |   |   |   |   |   |   |   |   |   |   |   |   |   |   |   |   |   |   |   |   |   avg_sentence_len <= 10.5
|   |   |   |   |   |   |   |   |   |   |   |   |   |   |   |   |   |   |   |   |   |   |   avg_sentence_len <= 9.5: 4 (3.0)
|   |   |   |   |   |   |   |   |   |   |   |   |   |   |   |   |   |   |   |   |   |   |   avg_sentence_len > 9.5: 0 (4.0/1.0)
|   |   |   |   |   |   |   |   |   |   |   |   |   |   |   |   |   |   |   |   |   |   avg_sentence_len > 10.5: 4 (4.0)
|   |   |   |   |   |   |   |   |   |   |   |   |   |   |   |   |   |   |   |   |   common_nouns > 3
|   |   |   |   |   |   |   |   |   |   |   |   |   |   |   |   |   |   |   |   |   |   proper_nouns <= 1
|   |   |   |   |   |   |   |   |   |   |   |   |   |   |   |   |   |   |   |   |   |   |   all_upper_case_words <= 0: 0 (5.0)
|   |   |   |   |   |   |   |   |   |   |   |   |   |   |   |   |   |   |   |   |   |   |   all_upper_case_words > 0
|   |   |   |   |   |   |   |   |   |   |   |   |   |   |   |   |   |   |   |   |   |   |   |   common_nouns <= 4: 0 (3.0/1.0)
|   |   |   |   |   |   |   |   |   |   |   |   |   |   |   |   |   |   |   |   |   |   |   |   common_nouns > 4: 4 (2.0)
|   |   |   |   |   |   |   |   |   |   |   |   |   |   |   |   |   |   |   |   |   |   proper_nouns > 1: 4 (2.0)
|   |   |   |   |   |   |   |   |   |   |   |   |   |   |   |   |   |   |   ellipses > 0: 4 (2.0)
|   |   |   |   |   |   |   |   |   |   |   |   |   |   |   |   |   |   n_sentences > 1: 0 (13.0/4.0)
|   |   |   |   |   |   |   |   |   |   |   |   |   |   |   |   colons_and_semicolons > 0: 4 (8.0/1.0)
|   |   |   |   |   |   |   |   |   |   |   |   |   |   |   wh_words > 0: 4 (4.0)
|   |   |   |   |   |   |   |   |   |   |   |   |   |   colons_and_semicolons > 1: 0 (7.0/1.0)
|   |   |   |   |   |   |   |   |   |   |   |   |   past_tense_verbs > 0: 0 (13.0/3.0)
|   |   |   |   |   |   |   |   |   |   |   |   third_person_pronouns > 0
|   |   |   |   |   |   |   |   |   |   |   |   |   all_upper_case_words <= 2: 4 (22.0/4.0)
|   |   |   |   |   |   |   |   |   |   |   |   |   all_upper_case_words > 2: 0 (2.0)
|   |   |   |   |   |   |   |   |   |   second_person_pronouns > 0
|   |   |   |   |   |   |   |   |   |   |   ellipses <= 0
|   |   |   |   |   |   |   |   |   |   |   |   third_person_pronouns <= 0
|   |   |   |   |   |   |   |   |   |   |   |   |   common_nouns <= 8
|   |   |   |   |   |   |   |   |   |   |   |   |   |   all_upper_case_words <= 0
|   |   |   |   |   |   |   |   |   |   |   |   |   |   |   common_nouns <= 5
|   |   |   |   |   |   |   |   |   |   |   |   |   |   |   |   n_sentences <= 2
|   |   |   |   |   |   |   |   |   |   |   |   |   |   |   |   |   past_tense_verbs <= 0
|   |   |   |   |   |   |   |   |   |   |   |   |   |   |   |   |   |   n_sentences <= 1
|   |   |   |   |   |   |   |   |   |   |   |   |   |   |   |   |   |   |   proper_nouns <= 0
|   |   |   |   |   |   |   |   |   |   |   |   |   |   |   |   |   |   |   |   coordinating_conjunctions <= 0
|   |   |   |   |   |   |   |   |   |   |   |   |   |   |   |   |   |   |   |   |   common_nouns <= 2: 0 (11.0/3.0)
|   |   |   |   |   |   |   |   |   |   |   |   |   |   |   |   |   |   |   |   |   common_nouns > 2
|   |   |   |   |   |   |   |   |   |   |   |   |   |   |   |   |   |   |   |   |   |   avg_token_len <= 3.571429: 0 (3.0)
|   |   |   |   |   |   |   |   |   |   |   |   |   |   |   |   |   |   |   |   |   |   avg_token_len > 3.571429
|   |   |   |   |   |   |   |   |   |   |   |   |   |   |   |   |   |   |   |   |   |   |   avg_token_len <= 4.555556: 4 (5.0)
|   |   |   |   |   |   |   |   |   |   |   |   |   |   |   |   |   |   |   |   |   |   |   avg_token_len > 4.555556
|   |   |   |   |   |   |   |   |   |   |   |   |   |   |   |   |   |   |   |   |   |   |   |   avg_token_len <= 5.166667: 0 (4.0/1.0)
|   |   |   |   |   |   |   |   |   |   |   |   |   |   |   |   |   |   |   |   |   |   |   |   avg_token_len > 5.166667: 4 (2.0)
|   |   |   |   |   |   |   |   |   |   |   |   |   |   |   |   |   |   |   |   coordinating_conjunctions > 0: 0 (3.0/1.0)
|   |   |   |   |   |   |   |   |   |   |   |   |   |   |   |   |   |   |   proper_nouns > 0: 4 (4.0)
|   |   |   |   |   |   |   |   |   |   |   |   |   |   |   |   |   |   n_sentences > 1
|   |   |   |   |   |   |   |   |   |   |   |   |   |   |   |   |   |   |   coordinating_conjunctions <= 0
|   |   |   |   |   |   |   |   |   |   |   |   |   |   |   |   |   |   |   |   avg_sentence_len <= 5.75: 0 (4.0)
|   |   |   |   |   |   |   |   |   |   |   |   |   |   |   |   |   |   |   |   avg_sentence_len > 5.75
|   |   |   |   |   |   |   |   |   |   |   |   |   |   |   |   |   |   |   |   |   common_nouns <= 3: 4 (4.0/1.0)
|   |   |   |   |   |   |   |   |   |   |   |   |   |   |   |   |   |   |   |   |   common_nouns > 3
|   |   |   |   |   |   |   |   |   |   |   |   |   |   |   |   |   |   |   |   |   |   avg_token_len <= 4.12: 4 (3.0)
|   |   |   |   |   |   |   |   |   |   |   |   |   |   |   |   |   |   |   |   |   |   avg_token_len > 4.12: 0 (4.0)
|   |   |   |   |   |   |   |   |   |   |   |   |   |   |   |   |   |   |   coordinating_conjunctions > 0: 0 (5.0)
|   |   |   |   |   |   |   |   |   |   |   |   |   |   |   |   |   past_tense_verbs > 0
|   |   |   |   |   |   |   |   |   |   |   |   |   |   |   |   |   |   n_sentences <= 1
|   |   |   |   |   |   |   |   |   |   |   |   |   |   |   |   |   |   |   common_nouns <= 2: 0 (5.0/1.0)
|   |   |   |   |   |   |   |   |   |   |   |   |   |   |   |   |   |   |   common_nouns > 2: 4 (3.0/1.0)
|   |   |   |   |   |   |   |   |   |   |   |   |   |   |   |   |   |   n_sentences > 1: 4 (3.0)
|   |   |   |   |   |   |   |   |   |   |   |   |   |   |   |   n_sentences > 2: 4 (8.0/1.0)
|   |   |   |   |   |   |   |   |   |   |   |   |   |   |   common_nouns > 5: 4 (8.0)
|   |   |   |   |   |   |   |   |   |   |   |   |   |   all_upper_case_words > 0: 4 (38.0/7.0)
|   |   |   |   |   |   |   |   |   |   |   |   |   common_nouns > 8: 0 (7.0/1.0)
|   |   |   |   |   |   |   |   |   |   |   |   third_person_pronouns > 0: 4 (22.0/5.0)
|   |   |   |   |   |   |   |   |   |   |   ellipses > 0: 0 (16.0/6.0)
|   |   |   |   |   |   |   |   |   future_tense_verbs > 0
|   |   |   |   |   |   |   |   |   |   ellipses <= 1
|   |   |   |   |   |   |   |   |   |   |   proper_nouns <= 0: 4 (29.0/7.0)
|   |   |   |   |   |   |   |   |   |   |   proper_nouns > 0
|   |   |   |   |   |   |   |   |   |   |   |   proper_nouns <= 1: 0 (3.0)
|   |   |   |   |   |   |   |   |   |   |   |   proper_nouns > 1: 4 (2.0)
|   |   |   |   |   |   |   |   |   |   ellipses > 1: 0 (2.0)
|   |   |   |   |   |   |   |   adverbs > 0
|   |   |   |   |   |   |   |   |   n_sentences <= 3
|   |   |   |   |   |   |   |   |   |   colons_and_semicolons <= 0
|   |   |   |   |   |   |   |   |   |   |   past_tense_verbs <= 0
|   |   |   |   |   |   |   |   |   |   |   |   wh_words <= 0
|   |   |   |   |   |   |   |   |   |   |   |   |   second_person_pronouns <= 0
|   |   |   |   |   |   |   |   |   |   |   |   |   |   avg_token_len <= 3.653846
|   |   |   |   |   |   |   |   |   |   |   |   |   |   |   all_upper_case_words <= 1: 0 (71.0/11.0)
|   |   |   |   |   |   |   |   |   |   |   |   |   |   |   all_upper_case_words > 1
|   |   |   |   |   |   |   |   |   |   |   |   |   |   |   |   coordinating_conjunctions <= 0
|   |   |   |   |   |   |   |   |   |   |   |   |   |   |   |   |   avg_sentence_len <= 10: 0 (5.0)
|   |   |   |   |   |   |   |   |   |   |   |   |   |   |   |   |   avg_sentence_len > 10: 4 (3.0)
|   |   |   |   |   |   |   |   |   |   |   |   |   |   |   |   coordinating_conjunctions > 0: 4 (5.0/2.0)
|   |   |   |   |   |   |   |   |   |   |   |   |   |   avg_token_len > 3.653846
|   |   |   |   |   |   |   |   |   |   |   |   |   |   |   future_tense_verbs <= 0
|   |   |   |   |   |   |   |   |   |   |   |   |   |   |   |   third_person_pronouns <= 0
|   |   |   |   |   |   |   |   |   |   |   |   |   |   |   |   |   adverbs <= 1
|   |   |   |   |   |   |   |   |   |   |   |   |   |   |   |   |   |   proper_nouns <= 0
|   |   |   |   |   |   |   |   |   |   |   |   |   |   |   |   |   |   |   coordinating_conjunctions <= 0
|   |   |   |   |   |   |   |   |   |   |   |   |   |   |   |   |   |   |   |   n_sentences <= 1: 0 (70.0/26.0)
|   |   |   |   |   |   |   |   |   |   |   |   |   |   |   |   |   |   |   |   n_sentences > 1
|   |   |   |   |   |   |   |   |   |   |   |   |   |   |   |   |   |   |   |   |   avg_sentence_len <= 6.75: 0 (46.0/15.0)
|   |   |   |   |   |   |   |   |   |   |   |   |   |   |   |   |   |   |   |   |   avg_sentence_len > 6.75: 4 (9.0/1.0)
|   |   |   |   |   |   |   |   |   |   |   |   |   |   |   |   |   |   |   coordinating_conjunctions > 0: 0 (35.0/15.0)
|   |   |   |   |   |   |   |   |   |   |   |   |   |   |   |   |   |   proper_nouns > 0
|   |   |   |   |   |   |   |   |   |   |   |   |   |   |   |   |   |   |   avg_token_len <= 3.863636: 0 (8.0/1.0)
|   |   |   |   |   |   |   |   |   |   |   |   |   |   |   |   |   |   |   avg_token_len > 3.863636: 4 (26.0/6.0)
|   |   |   |   |   |   |   |   |   |   |   |   |   |   |   |   |   adverbs > 1
|   |   |   |   |   |   |   |   |   |   |   |   |   |   |   |   |   |   proper_nouns <= 0
|   |   |   |   |   |   |   |   |   |   |   |   |   |   |   |   |   |   |   all_upper_case_words <= 1
|   |   |   |   |   |   |   |   |   |   |   |   |   |   |   |   |   |   |   |   adverbs <= 3
|   |   |   |   |   |   |   |   |   |   |   |   |   |   |   |   |   |   |   |   |   avg_sentence_len <= 14.5
|   |   |   |   |   |   |   |   |   |   |   |   |   |   |   |   |   |   |   |   |   |   ellipses <= 0
|   |   |   |   |   |   |   |   |   |   |   |   |   |   |   |   |   |   |   |   |   |   |   adverbs <= 2
|   |   |   |   |   |   |   |   |   |   |   |   |   |   |   |   |   |   |   |   |   |   |   |   avg_token_len <= 5.466667: 0 (38.0/10.0)
|   |   |   |   |   |   |   |   |   |   |   |   |   |   |   |   |   |   |   |   |   |   |   |   avg_token_len > 5.466667: 4 (3.0)
|   |   |   |   |   |   |   |   |   |   |   |   |   |   |   |   |   |   |   |   |   |   |   adverbs > 2
|   |   |   |   |   |   |   |   |   |   |   |   |   |   |   |   |   |   |   |   |   |   |   |   n_sentences <= 2
|   |   |   |   |   |   |   |   |   |   |   |   |   |   |   |   |   |   |   |   |   |   |   |   |   avg_token_len <= 4.25: 0 (5.0)
|   |   |   |   |   |   |   |   |   |   |   |   |   |   |   |   |   |   |   |   |   |   |   |   |   avg_token_len > 4.25: 4 (2.0)
|   |   |   |   |   |   |   |   |   |   |   |   |   |   |   |   |   |   |   |   |   |   |   |   n_sentences > 2: 4 (3.0)
|   |   |   |   |   |   |   |   |   |   |   |   |   |   |   |   |   |   |   |   |   |   ellipses > 0: 0 (9.0/2.0)
|   |   |   |   |   |   |   |   |   |   |   |   |   |   |   |   |   |   |   |   |   avg_sentence_len > 14.5: 4 (7.0/1.0)
|   |   |   |   |   |   |   |   |   |   |   |   |   |   |   |   |   |   |   |   adverbs > 3: 0 (7.0/1.0)
|   |   |   |   |   |   |   |   |   |   |   |   |   |   |   |   |   |   |   all_upper_case_words > 1: 0 (7.0/1.0)
|   |   |   |   |   |   |   |   |   |   |   |   |   |   |   |   |   |   proper_nouns > 0
|   |   |   |   |   |   |   |   |   |   |   |   |   |   |   |   |   |   |   ellipses <= 0
|   |   |   |   |   |   |   |   |   |   |   |   |   |   |   |   |   |   |   |   all_upper_case_words <= 1: 0 (20.0/3.0)
|   |   |   |   |   |   |   |   |   |   |   |   |   |   |   |   |   |   |   |   all_upper_case_words > 1: 4 (3.0/1.0)
|   |   |   |   |   |   |   |   |   |   |   |   |   |   |   |   |   |   |   ellipses > 0: 4 (4.0/1.0)
|   |   |   |   |   |   |   |   |   |   |   |   |   |   |   |   third_person_pronouns > 0
|   |   |   |   |   |   |   |   |   |   |   |   |   |   |   |   |   n_sentences <= 1
|   |   |   |   |   |   |   |   |   |   |   |   |   |   |   |   |   |   avg_sentence_len <= 7.5: 4 (3.0)
|   |   |   |   |   |   |   |   |   |   |   |   |   |   |   |   |   |   avg_sentence_len > 7.5: 0 (27.0/7.0)
|   |   |   |   |   |   |   |   |   |   |   |   |   |   |   |   |   n_sentences > 1
|   |   |   |   |   |   |   |   |   |   |   |   |   |   |   |   |   |   all_upper_case_words <= 2
|   |   |   |   |   |   |   |   |   |   |   |   |   |   |   |   |   |   |   all_upper_case_words <= 0
|   |   |   |   |   |   |   |   |   |   |   |   |   |   |   |   |   |   |   |   proper_nouns <= 1
|   |   |   |   |   |   |   |   |   |   |   |   |   |   |   |   |   |   |   |   |   proper_nouns <= 0
|   |   |   |   |   |   |   |   |   |   |   |   |   |   |   |   |   |   |   |   |   |   avg_token_len <= 4.904762: 4 (23.0/8.0)
|   |   |   |   |   |   |   |   |   |   |   |   |   |   |   |   |   |   |   |   |   |   avg_token_len > 4.904762: 0 (4.0)
|   |   |   |   |   |   |   |   |   |   |   |   |   |   |   |   |   |   |   |   |   proper_nouns > 0
|   |   |   |   |   |   |   |   |   |   |   |   |   |   |   |   |   |   |   |   |   |   ellipses <= 0
|   |   |   |   |   |   |   |   |   |   |   |   |   |   |   |   |   |   |   |   |   |   |   avg_token_len <= 4.55: 4 (3.0)
|   |   |   |   |   |   |   |   |   |   |   |   |   |   |   |   |   |   |   |   |   |   |   avg_token_len > 4.55: 0 (2.0)
|   |   |   |   |   |   |   |   |   |   |   |   |   |   |   |   |   |   |   |   |   |   ellipses > 0: 4 (2.0)
|   |   |   |   |   |   |   |   |   |   |   |   |   |   |   |   |   |   |   |   proper_nouns > 1: 4 (2.0)
|   |   |   |   |   |   |   |   |   |   |   |   |   |   |   |   |   |   |   all_upper_case_words > 0
|   |   |   |   |   |   |   |   |   |   |   |   |   |   |   |   |   |   |   |   coordinating_conjunctions <= 0
|   |   |   |   |   |   |   |   |   |   |   |   |   |   |   |   |   |   |   |   |   ellipses <= 0
|   |   |   |   |   |   |   |   |   |   |   |   |   |   |   |   |   |   |   |   |   |   avg_sentence_len <= 5.75: 4 (3.0/1.0)
|   |   |   |   |   |   |   |   |   |   |   |   |   |   |   |   |   |   |   |   |   |   avg_sentence_len > 5.75: 0 (5.0)
|   |   |   |   |   |   |   |   |   |   |   |   |   |   |   |   |   |   |   |   |   ellipses > 0: 4 (6.0/2.0)
|   |   |   |   |   |   |   |   |   |   |   |   |   |   |   |   |   |   |   |   coordinating_conjunctions > 0: 0 (6.0/1.0)
|   |   |   |   |   |   |   |   |   |   |   |   |   |   |   |   |   |   all_upper_case_words > 2: 4 (4.0)
|   |   |   |   |   |   |   |   |   |   |   |   |   |   |   future_tense_verbs > 0
|   |   |   |   |   |   |   |   |   |   |   |   |   |   |   |   future_tense_verbs <= 1
|   |   |   |   |   |   |   |   |   |   |   |   |   |   |   |   |   ellipses <= 1
|   |   |   |   |   |   |   |   |   |   |   |   |   |   |   |   |   |   common_nouns <= 6
|   |   |   |   |   |   |   |   |   |   |   |   |   |   |   |   |   |   |   common_nouns <= 2
|   |   |   |   |   |   |   |   |   |   |   |   |   |   |   |   |   |   |   |   avg_token_len <= 4.571429: 4 (5.0)
|   |   |   |   |   |   |   |   |   |   |   |   |   |   |   |   |   |   |   |   avg_token_len > 4.571429: 0 (3.0)
|   |   |   |   |   |   |   |   |   |   |   |   |   |   |   |   |   |   |   common_nouns > 2
|   |   |   |   |   |   |   |   |   |   |   |   |   |   |   |   |   |   |   |   all_upper_case_words <= 0
|   |   |   |   |   |   |   |   |   |   |   |   |   |   |   |   |   |   |   |   |   adverbs <= 3
|   |   |   |   |   |   |   |   |   |   |   |   |   |   |   |   |   |   |   |   |   |   coordinating_conjunctions <= 0: 0 (7.0/2.0)
|   |   |   |   |   |   |   |   |   |   |   |   |   |   |   |   |   |   |   |   |   |   coordinating_conjunctions > 0: 4 (3.0)
|   |   |   |   |   |   |   |   |   |   |   |   |   |   |   |   |   |   |   |   |   adverbs > 3: 0 (2.0)
|   |   |   |   |   |   |   |   |   |   |   |   |   |   |   |   |   |   |   |   all_upper_case_words > 0: 0 (5.0)
|   |   |   |   |   |   |   |   |   |   |   |   |   |   |   |   |   |   common_nouns > 6: 4 (4.0)
|   |   |   |   |   |   |   |   |   |   |   |   |   |   |   |   |   ellipses > 1: 4 (3.0)
|   |   |   |   |   |   |   |   |   |   |   |   |   |   |   |   future_tense_verbs > 1: 0 (2.0)
|   |   |   |   |   |   |   |   |   |   |   |   |   second_person_pronouns > 0
|   |   |   |   |   |   |   |   |   |   |   |   |   |   coordinating_conjunctions <= 0
|   |   |   |   |   |   |   |   |   |   |   |   |   |   |   ellipses <= 1
|   |   |   |   |   |   |   |   |   |   |   |   |   |   |   |   proper_nouns <= 0
|   |   |   |   |   |   |   |   |   |   |   |   |   |   |   |   |   second_person_pronouns <= 1
|   |   |   |   |   |   |   |   |   |   |   |   |   |   |   |   |   |   avg_sentence_len <= 8.25
|   |   |   |   |   |   |   |   |   |   |   |   |   |   |   |   |   |   |   adverbs <= 2
|   |   |   |   |   |   |   |   |   |   |   |   |   |   |   |   |   |   |   |   all_upper_case_words <= 0: 0 (13.0/2.0)
|   |   |   |   |   |   |   |   |   |   |   |   |   |   |   |   |   |   |   |   all_upper_case_words > 0
|   |   |   |   |   |   |   |   |   |   |   |   |   |   |   |   |   |   |   |   |   adverbs <= 1
|   |   |   |   |   |   |   |   |   |   |   |   |   |   |   |   |   |   |   |   |   |   common_nouns <= 4: 4 (3.0)
|   |   |   |   |   |   |   |   |   |   |   |   |   |   |   |   |   |   |   |   |   |   common_nouns > 4: 0 (3.0/1.0)
|   |   |   |   |   |   |   |   |   |   |   |   |   |   |   |   |   |   |   |   |   adverbs > 1: 0 (3.0)
|   |   |   |   |   |   |   |   |   |   |   |   |   |   |   |   |   |   |   adverbs > 2: 4 (3.0/1.0)
|   |   |   |   |   |   |   |   |   |   |   |   |   |   |   |   |   |   avg_sentence_len > 8.25: 4 (27.0/8.0)
|   |   |   |   |   |   |   |   |   |   |   |   |   |   |   |   |   second_person_pronouns > 1
|   |   |   |   |   |   |   |   |   |   |   |   |   |   |   |   |   |   adverbs <= 3: 4 (8.0)
|   |   |   |   |   |   |   |   |   |   |   |   |   |   |   |   |   |   adverbs > 3: 0 (2.0)
|   |   |   |   |   |   |   |   |   |   |   |   |   |   |   |   proper_nouns > 0: 0 (13.0/4.0)
|   |   |   |   |   |   |   |   |   |   |   |   |   |   |   ellipses > 1: 4 (4.0)
|   |   |   |   |   |   |   |   |   |   |   |   |   |   coordinating_conjunctions > 0
|   |   |   |   |   |   |   |   |   |   |   |   |   |   |   ellipses <= 1
|   |   |   |   |   |   |   |   |   |   |   |   |   |   |   |   future_tense_verbs <= 0
|   |   |   |   |   |   |   |   |   |   |   |   |   |   |   |   |   all_upper_case_words <= 0
|   |   |   |   |   |   |   |   |   |   |   |   |   |   |   |   |   |   third_person_pronouns <= 0
|   |   |   |   |   |   |   |   |   |   |   |   |   |   |   |   |   |   |   proper_nouns <= 1
|   |   |   |   |   |   |   |   |   |   |   |   |   |   |   |   |   |   |   |   avg_token_len <= 3.851852: 0 (5.0)
|   |   |   |   |   |   |   |   |   |   |   |   |   |   |   |   |   |   |   |   avg_token_len > 3.851852
|   |   |   |   |   |   |   |   |   |   |   |   |   |   |   |   |   |   |   |   |   common_nouns <= 6: 4 (6.0)
|   |   |   |   |   |   |   |   |   |   |   |   |   |   |   |   |   |   |   |   |   common_nouns > 6: 0 (2.0)
|   |   |   |   |   |   |   |   |   |   |   |   |   |   |   |   |   |   |   proper_nouns > 1: 0 (2.0)
|   |   |   |   |   |   |   |   |   |   |   |   |   |   |   |   |   |   third_person_pronouns > 0: 0 (5.0)
|   |   |   |   |   |   |   |   |   |   |   |   |   |   |   |   |   all_upper_case_words > 0
|   |   |   |   |   |   |   |   |   |   |   |   |   |   |   |   |   |   second_person_pronouns <= 2
|   |   |   |   |   |   |   |   |   |   |   |   |   |   |   |   |   |   |   adverbs <= 2: 4 (8.0/1.0)
|   |   |   |   |   |   |   |   |   |   |   |   |   |   |   |   |   |   |   adverbs > 2: 0 (3.0/1.0)
|   |   |   |   |   |   |   |   |   |   |   |   |   |   |   |   |   |   second_person_pronouns > 2: 0 (2.0)
|   |   |   |   |   |   |   |   |   |   |   |   |   |   |   |   future_tense_verbs > 0: 4 (4.0/1.0)
|   |   |   |   |   |   |   |   |   |   |   |   |   |   |   ellipses > 1: 0 (3.0)
|   |   |   |   |   |   |   |   |   |   |   |   wh_words > 0
|   |   |   |   |   |   |   |   |   |   |   |   |   n_sentences <= 1
|   |   |   |   |   |   |   |   |   |   |   |   |   |   common_nouns <= 2: 0 (8.0)
|   |   |   |   |   |   |   |   |   |   |   |   |   |   common_nouns > 2
|   |   |   |   |   |   |   |   |   |   |   |   |   |   |   avg_token_len <= 4.32: 0 (11.0/2.0)
|   |   |   |   |   |   |   |   |   |   |   |   |   |   |   avg_token_len > 4.32: 4 (8.0/2.0)
|   |   |   |   |   |   |   |   |   |   |   |   |   n_sentences > 1
|   |   |   |   |   |   |   |   |   |   |   |   |   |   n_sentences <= 2
|   |   |   |   |   |   |   |   |   |   |   |   |   |   |   adverbs <= 1
|   |   |   |   |   |   |   |   |   |   |   |   |   |   |   |   common_nouns <= 6: 4 (14.0/2.0)
|   |   |   |   |   |   |   |   |   |   |   |   |   |   |   |   common_nouns > 6: 0 (2.0)
|   |   |   |   |   |   |   |   |   |   |   |   |   |   |   adverbs > 1
|   |   |   |   |   |   |   |   |   |   |   |   |   |   |   |   avg_sentence_len <= 11: 0 (6.0)
|   |   |   |   |   |   |   |   |   |   |   |   |   |   |   |   avg_sentence_len > 11: 4 (2.0)
|   |   |   |   |   |   |   |   |   |   |   |   |   |   n_sentences > 2
|   |   |   |   |   |   |   |   |   |   |   |   |   |   |   adverbs <= 1
|   |   |   |   |   |   |   |   |   |   |   |   |   |   |   |   all_upper_case_words <= 1: 4 (2.0)
|   |   |   |   |   |   |   |   |   |   |   |   |   |   |   |   all_upper_case_words > 1: 0 (2.0)
|   |   |   |   |   |   |   |   |   |   |   |   |   |   |   adverbs > 1: 4 (9.0)
|   |   |   |   |   |   |   |   |   |   |   past_tense_verbs > 0
|   |   |   |   |   |   |   |   |   |   |   |   second_person_pronouns <= 0
|   |   |   |   |   |   |   |   |   |   |   |   |   ellipses <= 0
|   |   |   |   |   |   |   |   |   |   |   |   |   |   third_person_pronouns <= 0
|   |   |   |   |   |   |   |   |   |   |   |   |   |   |   wh_words <= 0
|   |   |   |   |   |   |   |   |   |   |   |   |   |   |   |   all_upper_case_words <= 0
|   |   |   |   |   |   |   |   |   |   |   |   |   |   |   |   |   adverbs <= 1
|   |   |   |   |   |   |   |   |   |   |   |   |   |   |   |   |   |   common_nouns <= 2: 0 (10.0/2.0)
|   |   |   |   |   |   |   |   |   |   |   |   |   |   |   |   |   |   common_nouns > 2
|   |   |   |   |   |   |   |   |   |   |   |   |   |   |   |   |   |   |   n_sentences <= 1: 4 (10.0/3.0)
|   |   |   |   |   |   |   |   |   |   |   |   |   |   |   |   |   |   |   n_sentences > 1
|   |   |   |   |   |   |   |   |   |   |   |   |   |   |   |   |   |   |   |   coordinating_conjunctions <= 0
|   |   |   |   |   |   |   |   |   |   |   |   |   |   |   |   |   |   |   |   |   n_sentences <= 2
|   |   |   |   |   |   |   |   |   |   |   |   |   |   |   |   |   |   |   |   |   |   common_nouns <= 3: 0 (3.0)
|   |   |   |   |   |   |   |   |   |   |   |   |   |   |   |   |   |   |   |   |   |   common_nouns > 3: 4 (3.0)
|   |   |   |   |   |   |   |   |   |   |   |   |   |   |   |   |   |   |   |   |   n_sentences > 2: 0 (4.0/1.0)
|   |   |   |   |   |   |   |   |   |   |   |   |   |   |   |   |   |   |   |   coordinating_conjunctions > 0: 0 (4.0/1.0)
|   |   |   |   |   |   |   |   |   |   |   |   |   |   |   |   |   adverbs > 1: 0 (25.0/5.0)
|   |   |   |   |   |   |   |   |   |   |   |   |   |   |   |   all_upper_case_words > 0
|   |   |   |   |   |   |   |   |   |   |   |   |   |   |   |   |   avg_sentence_len <= 7.75
|   |   |   |   |   |   |   |   |   |   |   |   |   |   |   |   |   |   common_nouns <= 2: 4 (3.0/1.0)
|   |   |   |   |   |   |   |   |   |   |   |   |   |   |   |   |   |   common_nouns > 2: 0 (11.0)
|   |   |   |   |   |   |   |   |   |   |   |   |   |   |   |   |   avg_sentence_len > 7.75: 4 (15.0/4.0)
|   |   |   |   |   |   |   |   |   |   |   |   |   |   |   wh_words > 0
|   |   |   |   |   |   |   |   |   |   |   |   |   |   |   |   avg_token_len <= 3.964286: 0 (6.0)
|   |   |   |   |   |   |   |   |   |   |   |   |   |   |   |   avg_token_len > 3.964286: 4 (3.0)
|   |   |   |   |   |   |   |   |   |   |   |   |   |   third_person_pronouns > 0
|   |   |   |   |   |   |   |   |   |   |   |   |   |   |   parentheses <= 0
|   |   |   |   |   |   |   |   |   |   |   |   |   |   |   |   adverbs <= 1: 0 (17.0/3.0)
|   |   |   |   |   |   |   |   |   |   |   |   |   |   |   |   adverbs > 1
|   |   |   |   |   |   |   |   |   |   |   |   |   |   |   |   |   avg_sentence_len <= 6.8: 4 (4.0)
|   |   |   |   |   |   |   |   |   |   |   |   |   |   |   |   |   avg_sentence_len > 6.8
|   |   |   |   |   |   |   |   |   |   |   |   |   |   |   |   |   |   coordinating_conjunctions <= 0: 0 (8.0/1.0)
|   |   |   |   |   |   |   |   |   |   |   |   |   |   |   |   |   |   coordinating_conjunctions > 0
|   |   |   |   |   |   |   |   |   |   |   |   |   |   |   |   |   |   |   avg_token_len <= 4.272727: 4 (8.0/2.0)
|   |   |   |   |   |   |   |   |   |   |   |   |   |   |   |   |   |   |   avg_token_len > 4.272727: 0 (3.0)
|   |   |   |   |   |   |   |   |   |   |   |   |   |   |   parentheses > 0: 4 (3.0)
|   |   |   |   |   |   |   |   |   |   |   |   |   ellipses > 0
|   |   |   |   |   |   |   |   |   |   |   |   |   |   proper_nouns <= 1: 0 (37.0/10.0)
|   |   |   |   |   |   |   |   |   |   |   |   |   |   proper_nouns > 1: 4 (2.0)
|   |   |   |   |   |   |   |   |   |   |   |   second_person_pronouns > 0
|   |   |   |   |   |   |   |   |   |   |   |   |   adverbs <= 1
|   |   |   |   |   |   |   |   |   |   |   |   |   |   n_sentences <= 2
|   |   |   |   |   |   |   |   |   |   |   |   |   |   |   coordinating_conjunctions <= 0
|   |   |   |   |   |   |   |   |   |   |   |   |   |   |   |   avg_sentence_len <= 15.5
|   |   |   |   |   |   |   |   |   |   |   |   |   |   |   |   |   avg_token_len <= 4.4375: 0 (8.0)
|   |   |   |   |   |   |   |   |   |   |   |   |   |   |   |   |   avg_token_len > 4.4375
|   |   |   |   |   |   |   |   |   |   |   |   |   |   |   |   |   |   common_nouns <= 2: 0 (3.0/1.0)
|   |   |   |   |   |   |   |   |   |   |   |   |   |   |   |   |   |   common_nouns > 2: 4 (2.0)
|   |   |   |   |   |   |   |   |   |   |   |   |   |   |   |   avg_sentence_len > 15.5: 4 (2.0)
|   |   |   |   |   |   |   |   |   |   |   |   |   |   |   coordinating_conjunctions > 0: 0 (2.0)
|   |   |   |   |   |   |   |   |   |   |   |   |   |   n_sentences > 2: 4 (5.0/1.0)
|   |   |   |   |   |   |   |   |   |   |   |   |   adverbs > 1: 0 (14.0/1.0)
|   |   |   |   |   |   |   |   |   |   colons_and_semicolons > 0
|   |   |   |   |   |   |   |   |   |   |   ellipses <= 0
|   |   |   |   |   |   |   |   |   |   |   |   future_tense_verbs <= 0
|   |   |   |   |   |   |   |   |   |   |   |   |   adverbs <= 3
|   |   |   |   |   |   |   |   |   |   |   |   |   |   all_upper_case_words <= 3
|   |   |   |   |   |   |   |   |   |   |   |   |   |   |   coordinating_conjunctions <= 1
|   |   |   |   |   |   |   |   |   |   |   |   |   |   |   |   avg_sentence_len <= 5.166667: 0 (4.0)
|   |   |   |   |   |   |   |   |   |   |   |   |   |   |   |   avg_sentence_len > 5.166667
|   |   |   |   |   |   |   |   |   |   |   |   |   |   |   |   |   n_sentences <= 2
|   |   |   |   |   |   |   |   |   |   |   |   |   |   |   |   |   |   common_nouns <= 6
|   |   |   |   |   |   |   |   |   |   |   |   |   |   |   |   |   |   |   all_upper_case_words <= 0
|   |   |   |   |   |   |   |   |   |   |   |   |   |   |   |   |   |   |   |   colons_and_semicolons <= 2: 4 (22.0/3.0)
|   |   |   |   |   |   |   |   |   |   |   |   |   |   |   |   |   |   |   |   colons_and_semicolons > 2: 0 (2.0)
|   |   |   |   |   |   |   |   |   |   |   |   |   |   |   |   |   |   |   all_upper_case_words > 0
|   |   |   |   |   |   |   |   |   |   |   |   |   |   |   |   |   |   |   |   colons_and_semicolons <= 1
|   |   |   |   |   |   |   |   |   |   |   |   |   |   |   |   |   |   |   |   |   avg_sentence_len <= 6.25: 4 (2.0)
|   |   |   |   |   |   |   |   |   |   |   |   |   |   |   |   |   |   |   |   |   avg_sentence_len > 6.25: 0 (7.0/1.0)
|   |   |   |   |   |   |   |   |   |   |   |   |   |   |   |   |   |   |   |   colons_and_semicolons > 1: 4 (2.0)
|   |   |   |   |   |   |   |   |   |   |   |   |   |   |   |   |   |   common_nouns > 6: 0 (6.0)
|   |   |   |   |   |   |   |   |   |   |   |   |   |   |   |   |   n_sentences > 2: 4 (3.0)
|   |   |   |   |   |   |   |   |   |   |   |   |   |   |   coordinating_conjunctions > 1: 0 (5.0)
|   |   |   |   |   |   |   |   |   |   |   |   |   |   all_upper_case_words > 3: 4 (3.0)
|   |   |   |   |   |   |   |   |   |   |   |   |   adverbs > 3: 4 (4.0)
|   |   |   |   |   |   |   |   |   |   |   |   future_tense_verbs > 0: 0 (5.0/1.0)
|   |   |   |   |   |   |   |   |   |   |   ellipses > 0
|   |   |   |   |   |   |   |   |   |   |   |   colons_and_semicolons <= 1: 0 (9.0/1.0)
|   |   |   |   |   |   |   |   |   |   |   |   colons_and_semicolons > 1: 4 (3.0/1.0)
|   |   |   |   |   |   |   |   |   n_sentences > 3
|   |   |   |   |   |   |   |   |   |   future_tense_verbs <= 0
|   |   |   |   |   |   |   |   |   |   |   adverbs <= 2
|   |   |   |   |   |   |   |   |   |   |   |   avg_token_len <= 3.846154: 4 (12.0/1.0)
|   |   |   |   |   |   |   |   |   |   |   |   avg_token_len > 3.846154
|   |   |   |   |   |   |   |   |   |   |   |   |   colons_and_semicolons <= 1
|   |   |   |   |   |   |   |   |   |   |   |   |   |   coordinating_conjunctions <= 0: 0 (22.0/7.0)
|   |   |   |   |   |   |   |   |   |   |   |   |   |   coordinating_conjunctions > 0
|   |   |   |   |   |   |   |   |   |   |   |   |   |   |   n_sentences <= 4
|   |   |   |   |   |   |   |   |   |   |   |   |   |   |   |   common_nouns <= 5: 4 (5.0/1.0)
|   |   |   |   |   |   |   |   |   |   |   |   |   |   |   |   common_nouns > 5: 0 (4.0)
|   |   |   |   |   |   |   |   |   |   |   |   |   |   |   n_sentences > 4: 4 (5.0)
|   |   |   |   |   |   |   |   |   |   |   |   |   colons_and_semicolons > 1: 4 (2.0)
|   |   |   |   |   |   |   |   |   |   |   adverbs > 2
|   |   |   |   |   |   |   |   |   |   |   |   colons_and_semicolons <= 0: 0 (13.0/3.0)
|   |   |   |   |   |   |   |   |   |   |   |   colons_and_semicolons > 0: 4 (2.0)
|   |   |   |   |   |   |   |   |   |   future_tense_verbs > 0: 4 (8.0/1.0)
|   |   |   |   |   |   |   commas > 0
|   |   |   |   |   |   |   |   ellipses <= 0
|   |   |   |   |   |   |   |   |   commas <= 1
|   |   |   |   |   |   |   |   |   |   second_person_pronouns <= 1
|   |   |   |   |   |   |   |   |   |   |   future_tense_verbs <= 0
|   |   |   |   |   |   |   |   |   |   |   |   third_person_pronouns <= 0
|   |   |   |   |   |   |   |   |   |   |   |   |   coordinating_conjunctions <= 1
|   |   |   |   |   |   |   |   |   |   |   |   |   |   proper_nouns <= 0
|   |   |   |   |   |   |   |   |   |   |   |   |   |   |   second_person_pronouns <= 0
|   |   |   |   |   |   |   |   |   |   |   |   |   |   |   |   colons_and_semicolons <= 0
|   |   |   |   |   |   |   |   |   |   |   |   |   |   |   |   |   all_upper_case_words <= 0
|   |   |   |   |   |   |   |   |   |   |   |   |   |   |   |   |   |   avg_sentence_len <= 6.8: 0 (11.0/1.0)
|   |   |   |   |   |   |   |   |   |   |   |   |   |   |   |   |   |   avg_sentence_len > 6.8
|   |   |   |   |   |   |   |   |   |   |   |   |   |   |   |   |   |   |   coordinating_conjunctions <= 0
|   |   |   |   |   |   |   |   |   |   |   |   |   |   |   |   |   |   |   |   common_nouns <= 3
|   |   |   |   |   |   |   |   |   |   |   |   |   |   |   |   |   |   |   |   |   avg_token_len <= 5.090909
|   |   |   |   |   |   |   |   |   |   |   |   |   |   |   |   |   |   |   |   |   |   avg_token_len <= 4.526316
|   |   |   |   |   |   |   |   |   |   |   |   |   |   |   |   |   |   |   |   |   |   |   adverbs <= 0: 4 (7.0/2.0)
|   |   |   |   |   |   |   |   |   |   |   |   |   |   |   |   |   |   |   |   |   |   |   adverbs > 0: 0 (12.0/3.0)
|   |   |   |   |   |   |   |   |   |   |   |   |   |   |   |   |   |   |   |   |   |   avg_token_len > 4.526316: 4 (5.0)
|   |   |   |   |   |   |   |   |   |   |   |   |   |   |   |   |   |   |   |   |   avg_token_len > 5.090909: 0 (5.0)
|   |   |   |   |   |   |   |   |   |   |   |   |   |   |   |   |   |   |   |   common_nouns > 3
|   |   |   |   |   |   |   |   |   |   |   |   |   |   |   |   |   |   |   |   |   common_nouns <= 5: 4 (15.0/2.0)
|   |   |   |   |   |   |   |   |   |   |   |   |   |   |   |   |   |   |   |   |   common_nouns > 5
|   |   |   |   |   |   |   |   |   |   |   |   |   |   |   |   |   |   |   |   |   |   past_tense_verbs <= 0: 4 (3.0/1.0)
|   |   |   |   |   |   |   |   |   |   |   |   |   |   |   |   |   |   |   |   |   |   past_tense_verbs > 0: 0 (2.0)
|   |   |   |   |   |   |   |   |   |   |   |   |   |   |   |   |   |   |   coordinating_conjunctions > 0
|   |   |   |   |   |   |   |   |   |   |   |   |   |   |   |   |   |   |   |   common_nouns <= 6
|   |   |   |   |   |   |   |   |   |   |   |   |   |   |   |   |   |   |   |   |   n_sentences <= 1
|   |   |   |   |   |   |   |   |   |   |   |   |   |   |   |   |   |   |   |   |   |   common_nouns <= 3: 4 (3.0)
|   |   |   |   |   |   |   |   |   |   |   |   |   |   |   |   |   |   |   |   |   |   common_nouns > 3
|   |   |   |   |   |   |   |   |   |   |   |   |   |   |   |   |   |   |   |   |   |   |   avg_token_len <= 3.904762: 4 (3.0)
|   |   |   |   |   |   |   |   |   |   |   |   |   |   |   |   |   |   |   |   |   |   |   avg_token_len > 3.904762: 0 (8.0/1.0)
|   |   |   |   |   |   |   |   |   |   |   |   |   |   |   |   |   |   |   |   |   n_sentences > 1
|   |   |   |   |   |   |   |   |   |   |   |   |   |   |   |   |   |   |   |   |   |   adverbs <= 1: 4 (3.0/1.0)
|   |   |   |   |   |   |   |   |   |   |   |   |   |   |   |   |   |   |   |   |   |   adverbs > 1: 0 (5.0/1.0)
|   |   |   |   |   |   |   |   |   |   |   |   |   |   |   |   |   |   |   |   common_nouns > 6: 4 (4.0)
|   |   |   |   |   |   |   |   |   |   |   |   |   |   |   |   |   all_upper_case_words > 0
|   |   |   |   |   |   |   |   |   |   |   |   |   |   |   |   |   |   past_tense_verbs <= 0
|   |   |   |   |   |   |   |   |   |   |   |   |   |   |   |   |   |   |   common_nouns <= 3: 0 (6.0/2.0)
|   |   |   |   |   |   |   |   |   |   |   |   |   |   |   |   |   |   |   common_nouns > 3: 4 (16.0/4.0)
|   |   |   |   |   |   |   |   |   |   |   |   |   |   |   |   |   |   past_tense_verbs > 0
|   |   |   |   |   |   |   |   |   |   |   |   |   |   |   |   |   |   |   avg_token_len <= 4.166667: 0 (2.0)
|   |   |   |   |   |   |   |   |   |   |   |   |   |   |   |   |   |   |   avg_token_len > 4.166667: 4 (2.0)
|   |   |   |   |   |   |   |   |   |   |   |   |   |   |   |   colons_and_semicolons > 0
|   |   |   |   |   |   |   |   |   |   |   |   |   |   |   |   |   coordinating_conjunctions <= 0
|   |   |   |   |   |   |   |   |   |   |   |   |   |   |   |   |   |   common_nouns <= 5: 4 (2.0)
|   |   |   |   |   |   |   |   |   |   |   |   |   |   |   |   |   |   common_nouns > 5
|   |   |   |   |   |   |   |   |   |   |   |   |   |   |   |   |   |   |   all_upper_case_words <= 1: 0 (3.0)
|   |   |   |   |   |   |   |   |   |   |   |   |   |   |   |   |   |   |   all_upper_case_words > 1: 4 (2.0)
|   |   |   |   |   |   |   |   |   |   |   |   |   |   |   |   |   coordinating_conjunctions > 0: 0 (4.0)
|   |   |   |   |   |   |   |   |   |   |   |   |   |   |   second_person_pronouns > 0
|   |   |   |   |   |   |   |   |   |   |   |   |   |   |   |   avg_token_len <= 4.722222
|   |   |   |   |   |   |   |   |   |   |   |   |   |   |   |   |   wh_words <= 0
|   |   |   |   |   |   |   |   |   |   |   |   |   |   |   |   |   |   common_nouns <= 6: 4 (19.0/7.0)
|   |   |   |   |   |   |   |   |   |   |   |   |   |   |   |   |   |   common_nouns > 6: 0 (3.0)
|   |   |   |   |   |   |   |   |   |   |   |   |   |   |   |   |   wh_words > 0: 0 (3.0)
|   |   |   |   |   |   |   |   |   |   |   |   |   |   |   |   avg_token_len > 4.722222: 4 (14.0)
|   |   |   |   |   |   |   |   |   |   |   |   |   |   proper_nouns > 0
|   |   |   |   |   |   |   |   |   |   |   |   |   |   |   all_upper_case_words <= 1
|   |   |   |   |   |   |   |   |   |   |   |   |   |   |   |   n_sentences <= 1
|   |   |   |   |   |   |   |   |   |   |   |   |   |   |   |   |   proper_nouns <= 2
|   |   |   |   |   |   |   |   |   |   |   |   |   |   |   |   |   |   all_upper_case_words <= 0
|   |   |   |   |   |   |   |   |   |   |   |   |   |   |   |   |   |   |   proper_nouns <= 1: 0 (7.0/2.0)
|   |   |   |   |   |   |   |   |   |   |   |   |   |   |   |   |   |   |   proper_nouns > 1
|   |   |   |   |   |   |   |   |   |   |   |   |   |   |   |   |   |   |   |   avg_token_len <= 4.5: 4 (6.0)
|   |   |   |   |   |   |   |   |   |   |   |   |   |   |   |   |   |   |   |   avg_token_len > 4.5: 0 (2.0)
|   |   |   |   |   |   |   |   |   |   |   |   |   |   |   |   |   |   all_upper_case_words > 0: 4 (5.0/1.0)
|   |   |   |   |   |   |   |   |   |   |   |   |   |   |   |   |   proper_nouns > 2: 0 (2.0)
|   |   |   |   |   |   |   |   |   |   |   |   |   |   |   |   n_sentences > 1
|   |   |   |   |   |   |   |   |   |   |   |   |   |   |   |   |   avg_sentence_len <= 12.5: 4 (31.0/4.0)
|   |   |   |   |   |   |   |   |   |   |   |   |   |   |   |   |   avg_sentence_len > 12.5: 0 (3.0/1.0)
|   |   |   |   |   |   |   |   |   |   |   |   |   |   |   all_upper_case_words > 1
|   |   |   |   |   |   |   |   |   |   |   |   |   |   |   |   proper_nouns <= 1: 0 (4.0)
|   |   |   |   |   |   |   |   |   |   |   |   |   |   |   |   proper_nouns > 1: 4 (2.0)
|   |   |   |   |   |   |   |   |   |   |   |   |   coordinating_conjunctions > 1
|   |   |   |   |   |   |   |   |   |   |   |   |   |   n_sentences <= 2
|   |   |   |   |   |   |   |   |   |   |   |   |   |   |   adverbs <= 1: 0 (7.0)
|   |   |   |   |   |   |   |   |   |   |   |   |   |   |   adverbs > 1
|   |   |   |   |   |   |   |   |   |   |   |   |   |   |   |   all_upper_case_words <= 0: 4 (2.0)
|   |   |   |   |   |   |   |   |   |   |   |   |   |   |   |   all_upper_case_words > 0: 0 (2.0)
|   |   |   |   |   |   |   |   |   |   |   |   |   |   n_sentences > 2: 4 (5.0/1.0)
|   |   |   |   |   |   |   |   |   |   |   |   third_person_pronouns > 0
|   |   |   |   |   |   |   |   |   |   |   |   |   colons_and_semicolons <= 0
|   |   |   |   |   |   |   |   |   |   |   |   |   |   proper_nouns <= 0
|   |   |   |   |   |   |   |   |   |   |   |   |   |   |   wh_words <= 0
|   |   |   |   |   |   |   |   |   |   |   |   |   |   |   |   all_upper_case_words <= 2
|   |   |   |   |   |   |   |   |   |   |   |   |   |   |   |   |   adverbs <= 2
|   |   |   |   |   |   |   |   |   |   |   |   |   |   |   |   |   |   adverbs <= 1
|   |   |   |   |   |   |   |   |   |   |   |   |   |   |   |   |   |   |   all_upper_case_words <= 0
|   |   |   |   |   |   |   |   |   |   |   |   |   |   |   |   |   |   |   |   second_person_pronouns <= 0
|   |   |   |   |   |   |   |   |   |   |   |   |   |   |   |   |   |   |   |   |   adverbs <= 0: 4 (9.0/2.0)
|   |   |   |   |   |   |   |   |   |   |   |   |   |   |   |   |   |   |   |   |   adverbs > 0
|   |   |   |   |   |   |   |   |   |   |   |   |   |   |   |   |   |   |   |   |   |   avg_sentence_len <= 14
|   |   |   |   |   |   |   |   |   |   |   |   |   |   |   |   |   |   |   |   |   |   |   avg_token_len <= 4.125: 0 (5.0)
|   |   |   |   |   |   |   |   |   |   |   |   |   |   |   |   |   |   |   |   |   |   |   avg_token_len > 4.125: 4 (3.0/1.0)
|   |   |   |   |   |   |   |   |   |   |   |   |   |   |   |   |   |   |   |   |   |   avg_sentence_len > 14: 4 (4.0)
|   |   |   |   |   |   |   |   |   |   |   |   |   |   |   |   |   |   |   |   second_person_pronouns > 0: 0 (4.0/1.0)
|   |   |   |   |   |   |   |   |   |   |   |   |   |   |   |   |   |   |   all_upper_case_words > 0: 4 (5.0/1.0)
|   |   |   |   |   |   |   |   |   |   |   |   |   |   |   |   |   |   adverbs > 1: 0 (8.0/1.0)
|   |   |   |   |   |   |   |   |   |   |   |   |   |   |   |   |   adverbs > 2: 4 (3.0)
|   |   |   |   |   |   |   |   |   |   |   |   |   |   |   |   all_upper_case_words > 2: 0 (3.0)
|   |   |   |   |   |   |   |   |   |   |   |   |   |   |   wh_words > 0: 4 (6.0/1.0)
|   |   |   |   |   |   |   |   |   |   |   |   |   |   proper_nouns > 0
|   |   |   |   |   |   |   |   |   |   |   |   |   |   |   coordinating_conjunctions <= 1: 0 (9.0)
|   |   |   |   |   |   |   |   |   |   |   |   |   |   |   coordinating_conjunctions > 1: 4 (3.0/1.0)
|   |   |   |   |   |   |   |   |   |   |   |   |   colons_and_semicolons > 0
|   |   |   |   |   |   |   |   |   |   |   |   |   |   second_person_pronouns <= 0
|   |   |   |   |   |   |   |   |   |   |   |   |   |   |   common_nouns <= 4: 4 (2.0)
|   |   |   |   |   |   |   |   |   |   |   |   |   |   |   common_nouns > 4: 0 (4.0/1.0)
|   |   |   |   |   |   |   |   |   |   |   |   |   |   second_person_pronouns > 0: 4 (3.0)
|   |   |   |   |   |   |   |   |   |   |   future_tense_verbs > 0
|   |   |   |   |   |   |   |   |   |   |   |   past_tense_verbs <= 0: 4 (17.0/4.0)
|   |   |   |   |   |   |   |   |   |   |   |   past_tense_verbs > 0: 0 (4.0/1.0)
|   |   |   |   |   |   |   |   |   |   second_person_pronouns > 1
|   |   |   |   |   |   |   |   |   |   |   common_nouns <= 9
|   |   |   |   |   |   |   |   |   |   |   |   avg_sentence_len <= 6: 0 (2.0)
|   |   |   |   |   |   |   |   |   |   |   |   avg_sentence_len > 6: 4 (23.0/2.0)
|   |   |   |   |   |   |   |   |   |   |   common_nouns > 9: 0 (2.0)
|   |   |   |   |   |   |   |   |   commas > 1
|   |   |   |   |   |   |   |   |   |   commas <= 3
|   |   |   |   |   |   |   |   |   |   |   future_tense_verbs <= 0
|   |   |   |   |   |   |   |   |   |   |   |   commas <= 2
|   |   |   |   |   |   |   |   |   |   |   |   |   third_person_pronouns <= 0
|   |   |   |   |   |   |   |   |   |   |   |   |   |   n_sentences <= 2
|   |   |   |   |   |   |   |   |   |   |   |   |   |   |   adverbs <= 0: 4 (9.0/1.0)
|   |   |   |   |   |   |   |   |   |   |   |   |   |   |   adverbs > 0
|   |   |   |   |   |   |   |   |   |   |   |   |   |   |   |   avg_sentence_len <= 10: 0 (7.0/1.0)
|   |   |   |   |   |   |   |   |   |   |   |   |   |   |   |   avg_sentence_len > 10: 4 (33.0/9.0)
|   |   |   |   |   |   |   |   |   |   |   |   |   |   n_sentences > 2: 4 (14.0/1.0)
|   |   |   |   |   |   |   |   |   |   |   |   |   third_person_pronouns > 0: 4 (14.0/1.0)
|   |   |   |   |   |   |   |   |   |   |   |   commas > 2
|   |   |   |   |   |   |   |   |   |   |   |   |   proper_nouns <= 0
|   |   |   |   |   |   |   |   |   |   |   |   |   |   all_upper_case_words <= 1
|   |   |   |   |   |   |   |   |   |   |   |   |   |   |   avg_token_len <= 4.8: 0 (8.0/1.0)
|   |   |   |   |   |   |   |   |   |   |   |   |   |   |   avg_token_len > 4.8: 4 (3.0)
|   |   |   |   |   |   |   |   |   |   |   |   |   |   all_upper_case_words > 1: 4 (2.0)
|   |   |   |   |   |   |   |   |   |   |   |   |   proper_nouns > 0: 4 (9.0/2.0)
|   |   |   |   |   |   |   |   |   |   |   future_tense_verbs > 0
|   |   |   |   |   |   |   |   |   |   |   |   common_nouns <= 7: 0 (6.0/1.0)
|   |   |   |   |   |   |   |   |   |   |   |   common_nouns > 7: 4 (5.0)
|   |   |   |   |   |   |   |   |   |   commas > 3
|   |   |   |   |   |   |   |   |   |   |   common_nouns <= 5: 0 (3.0)
|   |   |   |   |   |   |   |   |   |   |   common_nouns > 5: 4 (3.0/1.0)
|   |   |   |   |   |   |   |   ellipses > 0
|   |   |   |   |   |   |   |   |   future_tense_verbs <= 0
|   |   |   |   |   |   |   |   |   |   ellipses <= 1
|   |   |   |   |   |   |   |   |   |   |   coordinating_conjunctions <= 1
|   |   |   |   |   |   |   |   |   |   |   |   coordinating_conjunctions <= 0
|   |   |   |   |   |   |   |   |   |   |   |   |   second_person_pronouns <= 1: 0 (31.0/9.0)
|   |   |   |   |   |   |   |   |   |   |   |   |   second_person_pronouns > 1: 4 (4.0/1.0)
|   |   |   |   |   |   |   |   |   |   |   |   coordinating_conjunctions > 0
|   |   |   |   |   |   |   |   |   |   |   |   |   adverbs <= 2
|   |   |   |   |   |   |   |   |   |   |   |   |   |   commas <= 1
|   |   |   |   |   |   |   |   |   |   |   |   |   |   |   proper_nouns <= 0
|   |   |   |   |   |   |   |   |   |   |   |   |   |   |   |   avg_sentence_len <= 10: 0 (3.0/1.0)
|   |   |   |   |   |   |   |   |   |   |   |   |   |   |   |   avg_sentence_len > 10: 4 (5.0)
|   |   |   |   |   |   |   |   |   |   |   |   |   |   |   proper_nouns > 0: 0 (2.0)
|   |   |   |   |   |   |   |   |   |   |   |   |   |   commas > 1: 4 (4.0)
|   |   |   |   |   |   |   |   |   |   |   |   |   adverbs > 2: 0 (3.0)
|   |   |   |   |   |   |   |   |   |   |   coordinating_conjunctions > 1: 0 (5.0)
|   |   |   |   |   |   |   |   |   |   ellipses > 1
|   |   |   |   |   |   |   |   |   |   |   common_nouns <= 5: 4 (7.0)
|   |   |   |   |   |   |   |   |   |   |   common_nouns > 5: 0 (3.0/1.0)
|   |   |   |   |   |   |   |   |   future_tense_verbs > 0: 4 (7.0/1.0)
|   |   |   |   |   |   third_person_pronouns > 1
|   |   |   |   |   |   |   future_tense_verbs <= 0
|   |   |   |   |   |   |   |   n_sentences <= 1: 0 (41.0/6.0)
|   |   |   |   |   |   |   |   n_sentences > 1
|   |   |   |   |   |   |   |   |   adverbs <= 4
|   |   |   |   |   |   |   |   |   |   third_person_pronouns <= 2
|   |   |   |   |   |   |   |   |   |   |   proper_nouns <= 2
|   |   |   |   |   |   |   |   |   |   |   |   common_nouns <= 3
|   |   |   |   |   |   |   |   |   |   |   |   |   n_sentences <= 3: 0 (16.0/1.0)
|   |   |   |   |   |   |   |   |   |   |   |   |   n_sentences > 3: 4 (2.0)
|   |   |   |   |   |   |   |   |   |   |   |   common_nouns > 3
|   |   |   |   |   |   |   |   |   |   |   |   |   n_sentences <= 3
|   |   |   |   |   |   |   |   |   |   |   |   |   |   wh_words <= 1
|   |   |   |   |   |   |   |   |   |   |   |   |   |   |   coordinating_conjunctions <= 1: 4 (24.0/5.0)
|   |   |   |   |   |   |   |   |   |   |   |   |   |   |   coordinating_conjunctions > 1: 0 (7.0/2.0)
|   |   |   |   |   |   |   |   |   |   |   |   |   |   wh_words > 1: 0 (2.0)
|   |   |   |   |   |   |   |   |   |   |   |   |   n_sentences > 3: 0 (3.0)
